<?xml version="1.0"?>
<opencv_storage>
<opencv_ml_svm>
  <format>3</format>
  <svmType>C_SVC</svmType>
  <kernel>
    <type>LINEAR</type></kernel>
  <C>1.</C>
  <term_criteria><epsilon>1.1920928955078125e-07</epsilon>
    <iterations>1000</iterations></term_criteria>
  <var_count>531</var_count>
  <class_count>5</class_count>
  <class_labels type_id="opencv-matrix">
    <rows>5</rows>
    <cols>1</cols>
    <dt>i</dt>
    <data>
      1 2 3 4 5</data></class_labels>
  <sv_total>10</sv_total>
  <support_vectors>
    <_>
      -5.18120080e-02 -8.26316103e-02 -1.22103639e-01 -4.61910963e-02
      7.42998421e-02 -1.49083082e-02 3.67699750e-02 2.44572349e-02
      2.67863963e-02 2.95025744e-02 2.95025744e-02 2.47858558e-02
      2.74086352e-02 3.62292714e-02 -1.54626757e-01 -1.08370394e-01
      -3.32616493e-02 8.21535364e-02 8.35514888e-02 7.67244697e-02
      -1.60799101e-01 -2.97056288e-02 -3.44135538e-02 -9.64465458e-03
      1.16547467e-02 1.26539961e-01 7.65827820e-02 6.65131509e-02
      -4.73288484e-02 -6.07482716e-02 1.08685102e-02 6.68321969e-03
      2.51744166e-02 4.10266444e-02 7.88110420e-02 7.25137293e-02
      6.91448748e-02 7.56313577e-02 4.22770791e-02 -5.00915106e-03
      -1.65983498e-01 -1.81481987e-01 -1.18205681e-01 -6.57872632e-02
      6.91448748e-02 6.91448748e-02 -2.39132028e-02 -1.81954950e-01
      -5.67438751e-02 -3.72721702e-02 -1.82797816e-02 -6.95350871e-04
      -4.26854491e-02 2.63115522e-02 2.58505493e-02 3.22645605e-02
      4.05151434e-02 4.81466576e-02 5.31327119e-03 -3.81389633e-02
      -7.06520155e-02 -4.77551064e-03 1.17070988e-01 -4.11922000e-02
      1.04374304e-01 1.65246174e-01 8.93767625e-02 -2.12845460e-01
      -3.48415822e-01 3.13373841e-02 5.06421663e-02 8.91763568e-02
      2.51791328e-02 4.08126041e-02 3.09230350e-02 -2.74813792e-04
      -1.17714601e-02 -9.63619947e-02 -2.26916924e-01 5.24246320e-02
      1.88352078e-01 1.71991385e-04 -1.22724688e-02 -3.28096189e-03
      6.71994537e-02 3.67447138e-02 -1.34920105e-01 -3.48511040e-02
      -2.36269669e-03 -4.15217539e-04 1.13166273e-02 1.91709418e-02
      2.46462692e-02 7.65244737e-02 2.30655968e-01 -3.85338478e-02
      -1.51758522e-01 -1.01683557e-01 -4.13574837e-02 5.54975541e-03
      6.49281405e-03 9.76697169e-03 2.02171039e-03 -9.89020616e-03
      -5.30970246e-02 -8.81038383e-02 -5.08004427e-02 -2.72845719e-02
      -5.59629453e-03 4.64839395e-03 3.10946722e-03 3.44707957e-03
      1.58128962e-02 2.36446038e-02 -1.75387543e-02 -2.03023236e-02
      -2.51651704e-02 -4.93980339e-03 -1.86400358e-02 -3.22017558e-02
      -1.25614395e-02 8.06114450e-02 5.80774480e-03 -6.43552691e-02
      -1.79407820e-02 -3.63397948e-03 3.38853449e-02 6.18379228e-02
      1.69765763e-02 -9.14191306e-02 6.89064562e-02 5.79920560e-02
      -6.87135532e-02 -5.03638797e-02 -1.83188431e-02 5.10401884e-03
      3.21996585e-02 -2.62521836e-03 -1.08380146e-01 -1.16834112e-01
      -1.27398908e-01 -8.28179121e-02 -2.32055523e-02 -2.80316286e-02
      -2.23524333e-03 5.21153957e-03 5.33862156e-04 -4.64721955e-03
      -1.95291601e-02 -4.78898846e-02 -2.51400527e-02 -6.86332770e-03
      -2.00800765e-02 -9.72487312e-03 -2.37307511e-02 -1.92991290e-02
      1.50325969e-02 1.13054916e-01 2.81669181e-02 -5.28723095e-03
      -1.48533471e-02 -7.94234686e-03 -9.84390173e-03 -2.24371739e-02
      5.71240718e-03 7.22400621e-02 1.26144856e-01 4.20367680e-02
      -7.18421191e-02 -5.21568581e-02 -1.55127458e-02 -1.11668669e-02
      -5.67650832e-02 -8.22178796e-02 -6.37324452e-02 -8.95185675e-03
      -4.70439158e-02 -7.46629462e-02 -3.80499405e-03 -1.65038537e-02
      -3.08636315e-02 -5.97788719e-03 -2.37514153e-02 -5.00566028e-02
      -3.61772478e-02 -2.96727102e-02 -1.71470623e-02 -4.84071765e-03
      -1.67562105e-02 -7.90188368e-03 -1.16687650e-02 -2.44369134e-02
      -6.84642494e-02 4.93151695e-02 1.09084725e-01 4.97159101e-02
      -4.40454064e-03 -8.33901204e-03 -3.09897140e-02 -1.52224615e-01
      -1.30362034e-01 -1.00624207e-02 2.50066906e-01 1.50138944e-01
      3.30373123e-02 -4.07789089e-03 9.06808302e-03 6.77146204e-03
      -6.19480163e-02 -8.08551908e-02 -3.31679806e-02 1.92895755e-02
      1.33413412e-02 -3.70789692e-02 3.71186365e-03 1.63876358e-02
      -8.25687952e-04 -5.92498621e-03 -5.42025678e-02 -6.62805289e-02
      -1.39499623e-02 -4.23559733e-03 -6.00390229e-03 -1.65532902e-03
      -4.37940098e-03 3.51483524e-02 2.56710332e-02 -1.98678114e-02
      -8.32196251e-02 -3.42100710e-02 6.91080699e-03 6.69333246e-03
      6.61346223e-03 2.02237871e-02 -1.09894974e-02 -5.41439019e-02
      3.35744433e-02 -2.98796054e-02 8.30520540e-02 1.44760549e-01
      6.57942966e-02 5.00879996e-02 2.11936794e-02 -1.86955109e-01
      -1.74438700e-01 -5.84976040e-02 1.43600134e-02 9.78559181e-02
      1.29602090e-01 8.61433223e-02 5.66898510e-02 -7.14656785e-02
      -9.38664377e-02 -1.13771737e-01 -7.32005909e-02 3.74121917e-03
      4.80326526e-02 3.13668028e-02 1.70684140e-02 -3.39384526e-02
      -6.45989999e-02 5.42399026e-02 -6.20790012e-02 -1.17645063e-01
      -8.58194456e-02 3.86406551e-03 5.15751690e-02 6.58378005e-02
      5.93120791e-02 8.75198618e-02 -1.84844330e-01 -9.36032981e-02
      7.63900951e-02 2.29066074e-01 2.50969529e-01 2.34545276e-01
      1.59056172e-01 8.15913379e-02 -5.83916456e-02 -1.09349467e-01
      -5.12845106e-02 -1.00024939e-01 2.85501573e-02 3.91379893e-02
      5.19585349e-02 7.90353119e-02 1.51464686e-01 7.75397047e-02
      -1.60206571e-01 -2.00359344e-01 -9.28718150e-02 9.05274302e-02
      1.36118859e-01 6.45744577e-02 6.99071735e-02 7.71359960e-03
      -7.46966824e-02 3.28169540e-02 9.61680431e-03 4.96154698e-03
      4.33735317e-03 -6.73955539e-03 4.57228580e-03 -3.09740682e-03
      -8.96857306e-02 1.44585809e-02 -9.29551870e-02 -4.31447327e-02
      -6.52183965e-02 -7.60330036e-02 -6.96840212e-02 1.91229761e-01
      4.15868871e-02 2.43851412e-02 -1.22834854e-01 -2.61194203e-02
      2.41320312e-01 2.56275207e-01 4.61160429e-02 -6.97371289e-02
      -6.72898665e-02 -1.85991824e-01 -3.93123142e-02 -4.17179428e-02
      -1.67790323e-01 3.02528148e-03 1.12600118e-01 6.66297525e-02
      1.20067500e-01 1.19102404e-01 -1.65697020e-02 -1.73799321e-01
      -2.69049555e-01 2.30900943e-02 1.53278438e-02 7.52233900e-03
      -3.47375497e-03 -4.31935452e-02 -1.07918598e-01 -6.78471923e-02
      -8.18044529e-04 -5.14476048e-03 -9.07991901e-02 1.99272372e-02
      2.72797681e-02 1.28779905e-02 5.74670695e-02 -9.48955491e-03
      6.53345957e-02 4.49457206e-02 -1.35898426e-01 -1.67370122e-02
      1.24718979e-01 6.25115559e-02 1.97989124e-04 -7.41167143e-02
      -5.55004589e-02 -6.97283968e-02 1.19804658e-01 8.53425339e-02
      -5.25841638e-02 -4.04747948e-03 3.32174525e-02 3.45723778e-02
      3.52108595e-03 -8.59116763e-03 -3.96928377e-02 -4.60336953e-02
      -4.11581025e-02 9.06569511e-03 3.13549489e-02 2.21155822e-01
      -8.93123168e-03 -1.10953748e-01 -7.72433653e-02 -7.62475003e-03
      -2.24191789e-03 -1.92872458e-03 3.46531272e-02 5.48520274e-02
      1.63915530e-01 3.13312709e-02 -8.93123168e-03 -1.96614698e-01
      -1.73907671e-02 4.99813724e-03 3.08392420e-02 4.53799814e-02
      8.63609016e-02 1.96566939e-01 -8.93123168e-03 -7.00688660e-02
      -2.77934247e-03 9.12514143e-03 1.18569704e-02 2.66811084e-02
      1.07400306e-01 9.10718217e-02 8.76819715e-02 -7.60509297e-02
      -8.14518631e-02 -1.25593141e-01 -8.69064033e-02 6.46323571e-03
      1.06482178e-01 1.18728038e-02 3.56216915e-02 -1.45809010e-01
      1.40187591e-01 3.15818340e-02 -2.19899081e-02 1.14868544e-02
      -2.81880368e-02 -1.03993706e-01 4.41352427e-02 6.14688583e-02
      -2.51955707e-02 -3.33810002e-02 -1.06700964e-01 -2.42880490e-02
      1.44272670e-01 1.28719121e-01 4.15725075e-02 4.50045690e-02
      1.34194165e-01 3.36502902e-02 -5.12807854e-02 -9.41850394e-02
      -8.87123570e-02 2.18593832e-02 4.33978960e-02 2.93416701e-06
      3.62338386e-02 4.07998376e-02 1.99272390e-03 -5.71705587e-02
      -1.19184889e-01 -8.11262950e-02 -2.42880490e-02 2.47090384e-01
      3.95831279e-02 4.50618044e-02 8.10579583e-02 1.06240742e-01
      -2.42880490e-02 -9.96892974e-02 -1.50518730e-01 -3.42680961e-02
      1.47497132e-01 -3.34922806e-03 3.42424773e-02 1.33641660e-01
      -2.90327761e-02 -1.63041234e-01 -7.04296529e-02 2.07485892e-02
      -3.66090201e-02 -7.33336881e-02 3.68756875e-02 6.82059582e-03
      1.24675129e-02 -4.81283385e-03 -1.90125145e-02 4.05388673e-05
      -2.44583786e-02 -1.50924725e-02 -9.02101211e-03 4.18064371e-03
      3.07484791e-02 8.01600888e-02 -1.16057359e-01 -1.89292163e-03
      1.05752535e-02 3.45293805e-02 2.82421280e-02 -5.17068058e-03
      5.39405458e-02 -1.18228253e-02 -7.16512650e-03 -5.99354915e-02
      -8.91628936e-02 1.05752535e-02 1.05752535e-02 5.53039312e-02
      -1.03938468e-02 -1.11730036e-03 -1.16781762e-03 -1.49856287e-03
      1.60366967e-02 2.80025322e-02 1.52764162e-02 -4.08127755e-02
      -2.52484549e-02 6.20821724e-03 3.31828115e-03 1.38593297e-02
      2.19990592e-02 -4.17172313e-02 -5.53068779e-02 2.93695740e-02
      -8.25581315e-04 1.42856361e-03 -2.42426572e-03 -8.04361654e-04
      1.18807936e-02 4.51838300e-02 -1.08880654e-01 -2.43316963e-02
      -1.11909572e-03 -1.62744652e-02 3.68644833e-03 -6.84100110e-03
      -7.94015173e-03 -9.87104420e-03 5.89445643e-02 1.51749316e-03
      7.87550211e-02 -1.11909572e-03 -2.62452592e-03 -2.43896134e-02
      -1.40309855e-02 -8.90903454e-03 1.62936337e-02 2.96279285e-02
      -9.80667683e-05 1.30096842e-02 -5.31403609e-02 -8.55136439e-02
      -1.70755992e-03 7.86429830e-03 1.47808501e-02</_>
    <_>
      -4.95504290e-02 -4.46509048e-02 -3.16018701e-01 -3.79264280e-02
      1.91345513e-01 4.76817749e-02 1.81124732e-02 2.03820574e-03
      -1.45200253e-01 5.94972372e-02 5.94972372e-02 5.88494502e-02
      -9.27623082e-03 1.02885060e-01 -2.54361421e-01 -1.62690297e-01
      -7.56036565e-02 -1.51399840e-02 9.78341624e-02 2.40278870e-01
      -1.73028752e-01 5.96073503e-03 -2.20254902e-02 4.04551066e-03
      9.06319618e-02 2.66462922e-01 1.20184906e-01 6.56921789e-02
      -6.99274987e-02 5.14475629e-02 3.49743553e-02 -1.09479232e-02
      -4.71834987e-02 -5.33717871e-02 -2.66214628e-02 1.24931611e-01
      2.00152975e-02 2.00152975e-02 -8.23312402e-02 6.75333515e-02
      4.57584523e-02 -4.39731404e-02 -1.31755739e-01 -5.65164350e-02
      2.00152975e-02 2.00152975e-02 -7.86046237e-02 -2.87684593e-02
      3.90460342e-02 1.21289082e-01 2.41742209e-02 1.63243003e-02
      -5.53058984e-04 -9.17182863e-03 -2.34438833e-02 2.28412319e-02
      6.69356510e-02 5.93015216e-02 5.11989892e-02 2.39728894e-02
      4.22868505e-02 -1.19814567e-01 -7.25632384e-02 -2.11838558e-01
      4.18568999e-02 1.61830232e-01 2.19398607e-02 1.42065391e-01
      3.06646079e-02 1.79940760e-01 -6.04660623e-03 -6.04660623e-03
      -1.69234216e-01 -2.19316166e-02 4.79880013e-02 9.51553788e-03
      4.12229970e-02 2.05032639e-02 6.52427748e-02 -3.88301769e-03
      -9.90752578e-02 6.83706114e-03 -1.22222456e-03 1.36200124e-02
      6.69594556e-02 -1.41087230e-02 -1.09600397e-02 -3.29734362e-03
      4.39055543e-03 1.76424719e-03 3.02272402e-02 4.60608723e-03
      -2.87375562e-02 3.58413868e-02 5.72317094e-02 -5.66510297e-02
      -1.26723712e-02 -7.23326998e-03 1.12077277e-02 1.22809717e-02
      1.10607324e-02 -5.49734803e-03 -2.31647212e-02 4.23424272e-03
      -6.89885719e-03 -1.03565855e-02 2.10309774e-02 9.79994889e-04
      6.40024012e-03 7.75103457e-03 9.95013770e-03 3.45767359e-03
      1.06727341e-02 -1.92003585e-02 -3.06842476e-03 -1.14612468e-03
      -1.75514352e-02 1.04941232e-02 2.05635955e-03 4.66728769e-03
      -2.55677942e-02 8.35997984e-02 -1.09143155e-02 1.16998907e-02
      5.50399767e-04 2.79571221e-04 2.64024623e-02 4.28833738e-02
      5.62505759e-02 -8.44773054e-02 1.15972608e-02 1.15972608e-02
      2.75955647e-02 -5.09733967e-02 -2.80503649e-02 4.28606309e-02
      5.80150113e-02 -4.69573103e-02 -7.81134218e-02 3.11510800e-03
      6.84986264e-03 3.04060541e-02 3.66527289e-02 -5.91770047e-03
      8.15388560e-03 -2.74613703e-04 -1.40238879e-02 -4.52742614e-02
      -1.76922251e-02 -6.23554736e-03 1.34065859e-02 5.89578412e-03
      -1.76483113e-02 2.99498066e-03 -1.38436933e-03 3.01270168e-02
      4.99660000e-02 -2.56262533e-02 -4.08263095e-02 -1.83048323e-02
      -2.91395979e-03 1.80853880e-03 7.86259118e-03 2.61313515e-03
      3.28393579e-02 1.15972608e-02 1.15972608e-02 -6.23589419e-02
      -3.46112289e-02 -6.09971723e-03 9.13731009e-03 -1.74635388e-02
      -3.45938578e-02 -3.32361162e-02 4.77531441e-02 -2.72117686e-02
      -9.27187130e-02 -6.46901736e-03 1.50520084e-02 -4.61288542e-02
      -2.18301192e-02 -2.87320931e-03 -3.15637700e-02 -3.96211706e-02
      -4.79671359e-03 3.06707952e-04 1.81920379e-02 2.60248855e-02
      -9.78316384e-05 -8.55044636e-05 -2.38539558e-03 6.72473852e-03
      1.27606010e-02 1.13397557e-02 -1.93877723e-02 2.48063952e-02
      1.75108737e-03 1.03075197e-03 1.96142755e-02 1.85790677e-02
      2.14379281e-02 -2.07743910e-03 -5.32067232e-02 -2.31988356e-02
      1.04252240e-02 3.24792811e-03 3.68326493e-02 3.13655846e-02
      1.92092527e-02 8.92530102e-03 1.17449341e-02 -1.19115189e-02
      -5.76988161e-02 -3.28103527e-02 5.49979814e-05 1.20196557e-02
      5.76922717e-03 -2.50306493e-03 -2.50224974e-02 -3.00737694e-02
      -6.65681390e-03 7.72668933e-03 7.45385326e-03 5.94388135e-03
      1.14167994e-03 5.27477777e-03 1.00408187e-02 1.40227983e-02
      -3.63221578e-02 -1.44102806e-02 3.33322305e-03 5.04101627e-03
      -3.03615676e-03 8.43142997e-03 -7.25011230e-02 -3.74373831e-02
      1.17158569e-01 3.63611691e-02 1.39124960e-01 1.32329166e-02
      -6.77502230e-02 -1.96525026e-02 -5.16984193e-03 7.52449855e-02
      6.09069392e-02 1.26425683e-01 -1.39749516e-02 -6.96056634e-02
      -2.54002839e-01 -1.67404175e-01 1.44003453e-02 2.76417099e-02
      -3.29042077e-02 -5.23877479e-02 -2.18299832e-02 6.76851766e-03
      4.46712337e-02 7.83249363e-03 4.96171741e-03 -3.83498669e-02
      -5.50599918e-02 1.73611920e-02 2.99003609e-02 9.30592883e-03
      -5.28813945e-03 1.82047952e-02 8.10271129e-02 6.76080361e-02
      5.12814941e-03 -1.49824824e-02 -5.78699261e-02 -3.85895334e-02
      -7.65638938e-03 -1.91496667e-02 3.88550349e-02 1.67851418e-01
      1.29229680e-01 6.92614242e-02 -4.25209962e-02 -1.09104708e-01
      -6.42443001e-02 -1.10588104e-01 -3.11784204e-02 -9.73941758e-02
      -1.03853054e-01 4.77180146e-02 1.01916678e-01 1.01924175e-02
      -3.79953682e-02 -5.80844171e-02 -9.85711254e-03 7.84899592e-02
      3.38639617e-02 4.39471938e-02 2.47172099e-02 -1.22779496e-01
      -3.08048930e-02 -4.76213172e-02 -5.41248471e-02 -6.43979479e-03
      -1.23064741e-02 7.67175434e-03 2.69725304e-02 1.88406818e-02
      -1.32496050e-02 -1.27095347e-02 -3.35274301e-02 4.35216725e-03
      2.09042653e-02 -3.42790373e-02 -1.03621140e-01 -6.01059683e-02
      -2.43096752e-03 -2.43096752e-03 1.53677240e-02 -1.42139643e-01
      2.82900296e-02 2.09656060e-01 3.16005722e-02 -7.03267157e-02
      -2.02590898e-01 -1.52687788e-01 -9.66815464e-03 -5.16993590e-02
      -6.73250780e-02 -8.31419826e-02 -1.79086148e-03 4.99811722e-03
      -7.15001896e-02 -7.65243545e-04 1.95944291e-02 -3.57653177e-03
      -9.53716971e-03 -2.34895898e-03 -1.42676840e-02 8.31592362e-03
      5.32484381e-03 7.10360007e-03 1.32208401e-02 3.88037451e-02
      -5.13751758e-04 -6.31060451e-02 1.03906970e-02 3.86281982e-02
      1.64642427e-02 -3.60927992e-02 -2.08811350e-02 -4.66364697e-02
      -4.21960838e-03 1.24056526e-01 7.07018608e-03 -2.96382476e-02
      7.98699409e-02 9.71168652e-02 4.88703772e-02 -2.84865443e-02
      -8.59875008e-02 -1.42242566e-01 9.49026570e-02 2.39183411e-01
      -3.47493254e-02 -1.26441419e-02 5.03181927e-02 5.72687462e-02
      -3.48135945e-03 -1.09204762e-02 -5.97223314e-03 4.81832819e-03
      1.13465218e-02 -1.05162598e-02 -3.09614670e-02 -1.09472997e-01
      4.59545366e-02 9.03157424e-03 5.75452521e-02 1.30665547e-03
      1.15185762e-02 4.43666289e-03 -1.30500775e-02 -4.11928212e-03
      -1.61192089e-01 4.59545366e-02 4.59545366e-02 2.22368106e-01
      2.13391278e-02 1.29061537e-02 2.56914496e-02 -8.18339549e-03
      -1.89234093e-01 -7.61513934e-02 4.59545366e-02 5.96059263e-02
      3.38462330e-02 -3.15416371e-03 6.79614022e-03 3.31849940e-02
      -1.51450969e-02 -6.20780401e-02 3.57289724e-02 -3.48138012e-04
      -1.05113350e-01 1.55593127e-01 -4.37829755e-02 -4.18086611e-02
      8.20365474e-02 -7.79711977e-02 -1.31894454e-01 -1.96930259e-01
      4.05124128e-02 3.31803821e-02 1.33747095e-02 3.58973771e-01
      6.24334328e-02 -9.43620801e-02 -8.78380612e-02 1.24248289e-01
      4.04072702e-02 4.29224446e-02 1.57874763e-01 2.25337856e-02
      2.25337856e-02 -1.18187457e-01 -2.91452974e-01 -5.69091700e-02
      1.94476008e-01 1.41359612e-01 1.71038300e-01 -2.71920040e-02
      -1.39835551e-01 2.77152155e-02 -3.11912037e-02 -2.19464451e-01
      2.31182519e-02 3.05177756e-02 1.29276542e-02 -4.71580811e-02
      -7.77804032e-02 -2.80503128e-02 2.25337856e-02 3.83651108e-02
      -5.24557121e-02 7.19046593e-02 6.69479296e-02 1.97850630e-01
      2.25337856e-02 -1.02340899e-01 -2.49567211e-01 1.15885749e-01
      4.48593982e-02 -5.54147810e-02 1.69462159e-01 4.54272836e-01
      2.82120347e-01 -4.73458320e-01 -2.72959203e-01 -2.71047726e-02
      -1.19439788e-01 -1.27131864e-01 1.41523883e-01 1.34962024e-02
      5.42163588e-02 8.53286237e-02 -5.95660768e-02 -2.17916176e-01
      8.92314985e-02 1.77482560e-01 8.82245079e-02 1.88965071e-02
      5.21187522e-02 1.39153793e-01 2.32541665e-01 8.57875720e-02
      -1.14790611e-01 -1.14790611e-01 5.17758727e-01 1.90042332e-01
      8.34055543e-02 3.06073315e-02 2.63716606e-03 -1.63999394e-01
      -1.73464835e-01 -1.14790611e-01 -1.14790611e-01 4.68593448e-01
      6.53291419e-02 3.09919454e-02 5.16793039e-03 -7.04322383e-03
      -1.01366423e-01 -3.54801148e-01 -6.59791008e-02 3.07848215e-01
      1.49943873e-01 3.96401063e-02 1.41641516e-02 4.45219912e-02
      1.28336087e-01 1.69350535e-01 1.49805658e-02 -1.33958012e-01
      -9.96368974e-02 -2.29894370e-02 -4.24179016e-03 5.27047878e-03
      8.30700099e-02 2.08284244e-01 4.17441517e-01 2.43990943e-01
      -1.10073686e-01 -2.63272911e-01 -4.37087156e-02 1.92076003e-03
      1.99502409e-02 1.01203993e-01 1.83984280e-01 2.59364575e-01
      9.35366154e-02 -1.10073686e-01 -1.16735578e-01 5.74142002e-02
      -3.41830752e-03 1.71409454e-02 5.25610149e-02 7.25662485e-02
      6.61862418e-02 1.79326907e-02 -1.86364785e-01 -3.17368247e-02
      6.23261854e-02 4.92429137e-02 2.01302599e-02</_>
    <_>
      -2.52190530e-02 -1.70329750e-01 -9.87667963e-02 8.11067894e-02
      1.27931535e-01 3.18174548e-02 6.63714930e-02 1.52893811e-02
      7.70519907e-03 -1.46662444e-03 -1.46662444e-03 -3.96266812e-03
      -1.03129186e-01 2.10925029e-03 -4.11159098e-02 -1.10974990e-01
      1.53911099e-01 9.74382982e-02 1.45061061e-01 1.70858696e-01
      -1.43063754e-01 -1.89962462e-01 -6.20681718e-02 9.33576666e-04
      5.37226629e-03 1.18596755e-01 9.79039744e-02 1.14765733e-01
      9.90583748e-02 1.05042867e-02 1.85446665e-02 2.73984931e-02
      4.03490402e-02 -3.99730392e-02 -6.04758747e-02 6.41796961e-02
      3.51647362e-02 5.83263263e-02 -7.53204525e-02 3.79237533e-02
      3.69744189e-02 -2.34742891e-02 -7.93026537e-02 -7.42002949e-02
      3.51647362e-02 3.51647362e-02 -8.00090805e-02 -1.52032509e-01
      6.75486494e-03 4.13193777e-02 -2.26425808e-02 8.97161255e-04
      5.42720256e-04 -1.34248450e-01 -2.94702742e-02 -4.64168657e-03
      1.38282422e-02 3.21591161e-02 2.42316443e-02 1.42480843e-02
      -1.97591707e-02 -8.11028406e-02 9.10352692e-02 -5.28640375e-02
      8.95067453e-02 1.42281458e-01 1.08095959e-01 -2.85202023e-02
      -5.14457673e-02 -2.88109276e-02 -1.91279668e-02 -1.91279668e-02
      4.45039049e-02 3.36977020e-02 2.23406143e-02 8.24997481e-03
      1.28471414e-02 5.85597474e-03 -1.91376239e-01 -1.91279668e-02
      1.91122800e-01 3.02415527e-03 8.45356786e-04 5.92361612e-04
      4.73612770e-02 3.73617783e-02 6.17006905e-02 1.43375695e-02
      7.57933548e-03 3.72786075e-03 4.74055260e-02 2.07930058e-02
      -9.74263437e-03 3.28481235e-02 6.41313847e-03 1.04820998e-02
      2.51417365e-02 2.15079915e-02 2.33125109e-02 2.72092205e-02
      -4.04190645e-02 -7.89962336e-02 -2.71077943e-03 1.81272142e-02
      2.24141497e-02 1.06808543e-02 3.51515636e-02 3.62231545e-02
      8.35848972e-03 6.23052707e-03 -3.48225655e-03 -1.05330404e-02
      4.03837161e-03 3.63520384e-02 1.92840933e-03 8.63219146e-03
      -4.13976097e-03 4.32583550e-03 -1.57553062e-03 -1.91196578e-03
      1.97811667e-02 4.16378193e-02 6.42024279e-02 4.36720662e-02
      6.54249312e-03 4.45098989e-03 3.55040617e-02 -2.44664308e-02
      -9.63464193e-03 -2.02183127e-02 -1.65497027e-02 -1.65497027e-02
      4.50310148e-02 1.22470139e-02 1.93712357e-02 6.48572529e-03
      -2.14241855e-02 -4.87787314e-02 -2.59565804e-02 1.77254621e-02
      -2.97326338e-03 -1.66047190e-03 2.01884750e-02 -4.13074100e-04
      4.34697792e-03 7.26736709e-03 6.28857920e-03 4.21937788e-03
      -5.44293318e-03 -2.00909618e-02 -3.91081758e-02 -6.92323130e-03
      -1.63195264e-02 -1.18330517e-03 -4.49832203e-03 1.52885485e-02
      9.32241455e-02 2.78201532e-02 2.45683603e-02 1.86443049e-02
      9.19244078e-04 3.04435403e-03 4.06840164e-03 5.59495427e-02
      5.11345826e-02 -1.65497027e-02 -1.65497027e-02 -1.10104941e-01
      -9.63116810e-03 -1.65475402e-02 2.10406240e-02 2.69727483e-02
      1.00413300e-02 2.86455657e-02 -3.58179281e-03 -6.32240921e-02
      -7.40953237e-02 -1.15357048e-03 3.13410833e-02 1.56128798e-02
      -9.83253308e-03 2.93384530e-02 2.43758373e-02 1.19095976e-02
      6.68456487e-04 -2.95160189e-02 -1.01445904e-02 1.28509644e-02
      2.21388997e-03 -1.24067662e-03 5.29988029e-04 9.66614392e-03
      4.21104170e-02 1.84731558e-03 3.92350070e-02 4.47067581e-02
      1.40087609e-03 1.17813150e-04 1.23677237e-05 2.88680242e-03
      2.69636475e-02 -6.80061150e-03 -8.48926604e-02 -9.76498351e-02
      2.37708557e-02 1.37129743e-02 2.95996554e-02 3.18146646e-02
      1.59353148e-02 2.07560491e-02 -1.33830709e-02 -6.50538579e-02
      -8.24858993e-02 -1.90656837e-02 1.46306325e-02 2.51433719e-02
      -1.70170004e-03 -1.02564797e-03 -7.18305865e-03 -2.85238866e-03
      6.20314339e-03 4.94730612e-03 6.90797437e-03 6.55800477e-03
      -8.77597427e-04 1.33307716e-02 1.27010057e-02 2.23861709e-02
      4.77855187e-03 -2.92450795e-03 5.06299664e-04 7.63119245e-03
      2.94943736e-03 1.56000322e-02 2.51305513e-02 -1.39200855e-02
      9.48126093e-02 2.10937522e-02 9.07948539e-02 8.32941756e-02
      2.25060098e-02 -1.91729367e-02 -5.36330305e-02 -5.44149056e-02
      -1.00680016e-01 -1.82998851e-02 7.34729543e-02 1.22440144e-01
      8.77780393e-02 4.02199738e-02 -2.48431452e-02 -1.23048119e-01
      -3.59829962e-02 4.91362065e-04 2.44449228e-02 2.88051870e-02
      6.36755005e-02 2.94182915e-02 -2.53835111e-04 -6.81423545e-02
      -9.19514745e-02 6.92054927e-02 5.72213233e-02 -1.19500831e-02
      -3.19547914e-02 5.46060875e-03 2.08612531e-02 4.86434810e-02
      4.58090305e-02 6.98807389e-02 -6.89925030e-02 -1.56677291e-01
      -6.97415024e-02 -1.45684937e-02 1.47479728e-01 1.79930866e-01
      2.02345401e-01 1.15422755e-01 -2.99736112e-02 -1.77315488e-01
      -8.31899941e-02 -1.25013933e-01 1.49259225e-01 8.90722498e-02
      5.62462136e-02 1.32506818e-01 1.09041162e-01 -1.01994798e-01
      -7.86060691e-02 -2.21477654e-02 3.33575420e-02 4.61410955e-02
      5.80592714e-02 7.10185468e-02 8.80282000e-02 -6.41362220e-02
      -1.28271669e-01 2.17278358e-02 -1.57649745e-03 3.64330644e-03
      4.15171497e-03 1.26183070e-02 8.36495608e-02 3.09373774e-02
      -3.83523405e-02 4.70691584e-02 -3.43483202e-02 3.85574973e-03
      -9.52392584e-05 -2.96423361e-02 3.22199985e-02 2.48092502e-01
      -1.30656334e-02 -5.17593846e-02 -1.74075589e-01 -1.71170712e-01
      -2.58258563e-02 2.19064251e-01 8.15183893e-02 3.47976270e-03
      -2.44549029e-02 -2.77679078e-02 -1.09952442e-01 -1.37766063e-01
      -1.68570533e-01 -3.77675518e-02 1.16526082e-01 1.10026911e-01
      6.26257807e-02 4.56060320e-02 2.51645260e-02 -2.35859603e-02
      -8.71361643e-02 1.63545199e-02 6.81093149e-03 4.07963945e-03
      1.14297564e-03 -1.20819069e-03 -7.45683955e-03 -7.37653207e-03
      2.75235418e-02 4.08916268e-03 1.07674515e-02 2.62070056e-02
      -2.23908145e-02 -1.20692616e-02 4.67170328e-02 3.10880262e-02
      7.50383362e-02 6.87466636e-02 6.59798086e-03 -9.30161476e-02
      4.88439985e-02 8.71578045e-03 -3.12943980e-02 -6.83782175e-02
      -1.50011173e-02 -1.16351889e-02 1.72394246e-01 1.29798681e-01
      -8.41668099e-02 -4.65129642e-03 4.95833270e-02 3.70331481e-02
      2.92649474e-02 1.61809400e-02 6.71465276e-03 -8.68391152e-03
      -4.54586931e-02 -1.70937199e-02 1.12936525e-02 8.27597529e-02
      -7.58420629e-03 -9.18278471e-02 -8.58323947e-02 -7.75438733e-03
      5.98899089e-04 1.74577429e-03 -2.20820960e-02 2.14426182e-02
      1.41172200e-01 6.43308088e-02 -7.58420629e-03 -1.50041968e-01
      -2.11481992e-02 -7.58061279e-03 1.74252205e-02 -6.93987124e-03
      7.04649240e-02 4.93578129e-02 -7.58420629e-03 -4.68379036e-02
      -5.01947030e-02 -4.16429155e-02 -1.64374206e-02 -3.13137425e-03
      3.46181244e-02 1.18468113e-01 1.37010440e-01 4.31380905e-02
      -5.91398077e-03 -1.30354643e-01 -2.38941908e-01 -3.35179158e-02
      8.50275531e-02 -6.35578632e-02 -4.36824337e-02 -1.47317752e-01
      6.05210848e-02 4.71791476e-02 7.21686557e-02 1.24477886e-01
      -1.27716335e-02 -6.63567707e-02 8.90911296e-02 1.01631746e-01
      1.67967251e-03 -4.63614240e-02 -5.36522456e-03 -3.82512212e-02
      3.34106870e-02 1.28032640e-01 5.42062819e-02 1.75081462e-01
      2.00206608e-01 -9.79458392e-02 -8.37680772e-02 -1.05538376e-01
      -8.02175477e-02 9.27358940e-02 1.04405843e-01 8.79457816e-02
      5.99187575e-02 2.25957241e-02 7.66631216e-03 -7.77225718e-02
      -1.70376688e-01 -9.04223695e-02 -3.82512212e-02 2.65308559e-01
      5.64238317e-02 9.38001052e-02 2.07718834e-02 1.20206527e-01
      -3.82512212e-02 -1.47059694e-01 -2.09393606e-01 -3.64749087e-03
      1.84738144e-01 5.34768477e-02 1.00180231e-01 1.92159534e-01
      1.25625450e-03 -3.15145582e-01 -1.89336479e-01 2.63828915e-02
      -3.51275764e-02 3.66859185e-03 3.61739695e-02 1.43272718e-02
      1.42371142e-02 7.38029554e-03 -1.52605206e-01 -1.21979199e-01
      -5.73498837e-04 8.52319077e-02 4.10589688e-02 1.59615595e-02
      3.09910700e-02 1.69550143e-02 7.71933061e-04 -1.47397727e-01
      -1.29405409e-01 2.98799038e-01 2.46057510e-01 1.03504814e-01
      7.03407452e-02 2.03160495e-02 1.34711023e-02 -9.87577513e-02
      -2.75344223e-01 -1.18055321e-01 3.08965594e-01 2.06550598e-01
      4.35599722e-02 3.27936336e-02 -6.16980717e-03 -1.05114141e-02
      -1.40836206e-03 -7.22818077e-03 1.41705573e-01 1.60953879e-01
      2.36429907e-02 -7.61710480e-03 -3.78525094e-03 8.62814113e-03
      3.56582738e-02 6.55614957e-02 2.48866696e-02 1.24469018e-02
      2.19485769e-03 8.87052622e-04 -3.59875383e-03 -8.08341894e-03
      -8.56261409e-04 4.16053087e-02 1.62593052e-01 3.24896932e-01
      -5.96876927e-02 -1.04789391e-01 -2.39443243e-01 -3.71287465e-02
      -3.32842506e-02 -2.57347953e-02 5.91320172e-02 8.19656998e-02
      2.63006657e-01 -5.96876927e-02 -5.96893653e-02 -2.15548888e-01
      -6.19438514e-02 -4.56685089e-02 2.12926045e-02 3.86306904e-02
      2.27387566e-02 1.19952038e-02 -8.31885487e-02 -1.67440429e-01
      -9.13838819e-02 1.10813649e-02 2.70939805e-03</_>
    <_>
      5.10471798e-02 -1.15029953e-01 -1.78925082e-01 -9.91163328e-02
      5.71793914e-02 2.09753495e-02 7.27217197e-02 5.89745976e-02
      5.64103536e-02 6.59706220e-02 2.25018021e-02 1.77981108e-02
      -1.77423745e-01 -1.86434500e-02 -2.30632797e-01 4.21125330e-02
      1.45334434e-02 2.90055007e-01 9.31510627e-02 1.52578697e-01
      -1.81774274e-01 -2.08149552e-01 -5.48799597e-02 -7.56741017e-02
      7.58179948e-02 1.41711667e-01 1.03566058e-01 -5.62976114e-04
      4.76395003e-02 5.72918467e-02 1.07562505e-02 1.11140050e-02
      5.19937277e-02 7.08028078e-02 1.02266513e-01 1.94215961e-02
      -3.39896902e-02 -3.39896902e-02 2.29574665e-02 3.80655788e-02
      6.42483905e-02 8.07294771e-02 5.18686473e-02 -8.91633565e-04
      -3.39896902e-02 -3.39896902e-02 -1.22305062e-02 5.80782108e-02
      3.60839963e-02 9.22222808e-02 4.05583158e-02 9.23383457e-04
      -8.84159841e-03 -1.20439874e-02 2.14919192e-03 -3.20192017e-02
      4.19525839e-02 5.17175049e-02 4.51939143e-02 8.36667232e-03
      -6.10161871e-02 -1.56944409e-01 -9.15610045e-02 -1.22204266e-01
      -1.63194295e-02 1.22986019e-01 1.68337837e-01 2.50650853e-01
      -2.97113750e-02 1.16058469e-01 2.09074491e-03 2.09074491e-03
      -1.50322378e-01 -1.11675598e-02 4.30313498e-02 2.17478648e-02
      7.77332783e-02 3.04194130e-02 1.42592713e-01 2.09074491e-03
      -1.38559937e-01 1.53155718e-03 -1.34669160e-02 -7.34903216e-02
      4.59634103e-02 1.66638881e-01 8.94495994e-02 -5.94629266e-04
      -1.17615121e-03 -3.63359274e-03 4.56069484e-02 7.11451024e-02
      1.14334680e-01 1.15324274e-01 -2.95788702e-03 -1.70255333e-01
      -8.76001343e-02 -4.52790596e-03 1.59816407e-02 3.76904830e-02
      7.67920911e-03 -5.39664179e-02 -1.58596728e-02 -1.22579083e-01
      -1.35265514e-01 -5.30761965e-02 2.71113105e-02 4.21370566e-02
      -1.26599595e-02 -1.63209010e-02 -7.27145094e-03 4.24384885e-03
      3.82102728e-02 6.70438409e-02 2.73813158e-02 -1.81175931e-03
      -1.32710282e-02 6.07199734e-03 -2.64224736e-03 -2.01154314e-02
      -3.58235687e-02 1.57123893e-01 2.18909487e-01 1.45540023e-02
      2.41898326e-03 3.70614789e-03 6.54289424e-02 1.35534346e-01
      1.79672748e-01 -5.62323779e-02 -6.82695657e-02 -6.82695657e-02
      -2.37495005e-02 1.65805314e-02 3.43069546e-02 2.33877497e-03
      -3.58745344e-02 -1.31105259e-01 -6.62484244e-02 -1.37859255e-01
      -1.85280010e-01 -7.54709095e-02 2.29079518e-02 1.53939221e-02
      1.58314314e-03 -1.14516600e-03 -2.42164545e-03 1.60607528e-02
      6.07334264e-02 9.00513828e-02 4.90286350e-02 5.75279642e-04
      -1.12342825e-02 -5.53525006e-03 -7.76718697e-03 1.97996423e-02
      1.89248905e-01 6.44278824e-02 -1.33095784e-02 -6.20843796e-03
      -9.54606105e-03 -1.00259501e-02 7.34500438e-02 1.28739089e-01
      1.38576508e-01 -4.40742262e-02 -6.82695657e-02 2.31201332e-02
      8.64168853e-02 5.60354516e-02 4.58447598e-02 2.10892055e-02
      2.51314994e-02 1.85207967e-02 -8.88952538e-02 -1.60560265e-01
      -4.96788025e-02 -3.31172757e-02 3.41469646e-02 4.07675980e-04
      9.54393530e-04 1.12030171e-02 3.16704139e-02 4.34936434e-02
      5.46998996e-03 -4.10025567e-03 5.13131544e-03 1.86343584e-02
      4.01385222e-03 -2.47515971e-03 -1.96839101e-03 1.45509781e-03
      7.01752156e-02 1.13349631e-01 3.54662612e-02 -3.74238528e-02
      -4.10067989e-03 -2.61358195e-03 2.14917287e-02 9.49539430e-03
      -6.24604709e-02 -1.13481745e-01 6.43390939e-02 1.49309874e-01
      6.20510876e-02 5.42300530e-02 4.56477925e-02 3.68030667e-02
      1.63896494e-02 -2.07643323e-02 -9.48582888e-02 -6.46123216e-02
      -6.54184725e-03 5.01506217e-03 5.99061884e-02 3.33980992e-02
      -1.19490474e-02 -1.66001059e-02 1.30197965e-02 3.01982015e-02
      1.63196605e-02 -1.72289135e-03 -3.91994882e-03 4.38184571e-03
      -6.46169158e-03 1.62886009e-02 4.65977080e-02 4.39671651e-02
      1.12282364e-02 8.41013808e-03 2.93964799e-03 -3.84275964e-03
      -6.01999182e-03 4.21245024e-03 -3.39756832e-02 -8.17884877e-03
      1.63900070e-02 9.10896882e-02 8.76549855e-02 8.49071592e-02
      -1.91355916e-03 -2.66553927e-02 3.29198278e-02 -5.96922189e-02
      -3.59932631e-02 1.32052070e-02 1.07220840e-02 7.98330735e-03
      1.78311504e-02 -2.26740558e-02 -5.55316284e-02 -5.84578514e-02
      -1.05119860e-02 6.50079967e-03 2.10194178e-02 4.45552692e-02
      6.80418164e-02 -1.88287362e-04 -1.59603134e-02 -2.16321945e-02
      -2.84452196e-02 3.43971737e-02 6.85745403e-02 2.63856933e-03
      -2.92696767e-02 -1.15864621e-02 -5.53927990e-03 -1.33937076e-02
      -8.29906315e-02 -5.80361634e-02 -1.99546479e-03 6.11923076e-03
      -2.70665288e-02 -5.64317442e-02 1.08635686e-01 8.62247720e-02
      1.46074727e-01 6.11467808e-02 -7.10283220e-02 -1.05905689e-01
      -9.11708325e-02 3.01223937e-02 -2.46306118e-02 9.95515287e-03
      6.48749024e-02 1.13858700e-01 1.09733328e-01 -8.77065584e-02
      -6.53072447e-02 -4.80999611e-02 -3.45736817e-02 1.22531392e-02
      7.82223344e-02 6.84882253e-02 4.48811576e-02 -7.24975839e-02
      -9.32073891e-02 -2.19026115e-02 -2.09854152e-02 -2.90136710e-02
      -2.67708953e-02 -4.20895107e-02 -3.13611440e-02 -2.17130892e-02
      2.43359972e-02 2.77823023e-02 -1.29778773e-01 -7.52448663e-02
      -2.38815416e-02 -1.95579212e-02 2.58134361e-02 2.44811788e-01
      1.92142110e-02 1.92142110e-02 -1.58974588e-01 -4.77360673e-02
      -6.04687678e-03 -6.18504547e-02 -6.42980859e-02 5.20406198e-03
      3.12184449e-02 2.18713373e-01 1.91371650e-01 -6.58194395e-03
      -5.23947962e-02 -8.37232172e-02 -2.27705203e-02 3.61023769e-02
      6.06025904e-02 -8.94819573e-03 9.51888785e-03 -2.26524659e-03
      -2.68084016e-02 1.08385812e-02 8.84525571e-03 -1.18528130e-02
      -1.33382846e-02 -1.69282090e-02 8.33747350e-03 -4.89912136e-03
      2.98541840e-02 5.71026513e-03 -1.11669950e-01 4.23702266e-04
      -3.89277376e-02 -4.62120622e-02 2.61053033e-02 7.28035271e-02
      1.02768242e-01 2.34408416e-02 -1.52424514e-01 -1.31284654e-01
      -1.89582542e-01 -1.90197229e-01 -8.25015679e-02 1.29543161e-02
      5.75583167e-02 1.72698677e-01 2.22553670e-01 1.03533007e-02
      -2.69149207e-02 -3.51474136e-02 -3.32726017e-02 1.50247449e-02
      1.93304811e-02 3.34272720e-02 1.50055476e-02 -5.00165799e-04
      -1.11606782e-02 -5.12636751e-02 -1.93107009e-01 5.62055688e-03
      3.03709786e-02 1.79332286e-01 1.10476062e-01 5.38606849e-03
      -2.48185103e-03 -1.12861125e-02 -5.15804775e-02 -1.16825923e-01
      -1.37683541e-01 3.03709786e-02 1.65504530e-01 1.99628651e-01
      2.54713111e-02 -1.88642479e-02 -2.88349912e-02 -4.93828245e-02
      -2.63700366e-01 1.09267198e-02 3.03709786e-02 8.48220140e-02
      7.71161765e-02 1.96356829e-02 2.07521077e-02 5.05124070e-02
      -7.90787637e-02 -1.82442352e-01 -1.25765860e-01 2.09989659e-02
      7.50468969e-02 1.42037600e-01 2.81218421e-02 3.00053302e-02
      7.33783469e-02 -5.93848638e-02 -1.20162122e-01 -7.44382525e-03
      1.81239501e-01 5.24499826e-02 3.10337562e-02 3.03122327e-02
      -9.08361599e-02 -9.15056542e-02 7.90228695e-02 9.28503051e-02
      3.30444835e-02 7.43242875e-02 1.58632815e-01 1.64028518e-02
      1.64028518e-02 -1.52381882e-01 -2.61969477e-01 -6.15180731e-02
      5.09889051e-02 9.67312232e-02 3.73191684e-01 2.25879803e-01
      -1.61177084e-01 -9.51952487e-02 -2.72929639e-01 -2.54773349e-01
      1.87308099e-02 3.76376845e-02 3.05753276e-02 6.51023388e-02
      7.98455030e-02 7.89010823e-02 1.64028518e-02 -6.49440009e-03
      -1.11501418e-01 1.29674664e-02 6.48883432e-02 2.05598906e-01
      1.72904357e-01 -3.48230684e-03 -2.82601357e-01 1.12275437e-01
      -7.93065801e-02 -1.32442981e-01 1.18978851e-01 3.51751506e-01
      2.79877573e-01 -2.74353862e-01 -7.23566562e-02 -4.34748903e-02
      -1.23745069e-01 -1.60942405e-01 -3.11437715e-02 4.03402699e-03
      5.33665232e-02 6.86540306e-02 5.15849106e-02 -4.44132239e-02
      -1.55160755e-01 -5.93016185e-02 -1.10901408e-01 -7.82469362e-02
      -3.06588281e-02 8.77015218e-02 2.00028881e-01 2.89721847e-01
      4.24795598e-02 1.84711684e-02 -3.35297622e-02 -2.99757987e-01
      -1.61972359e-01 -4.60538007e-02 -3.09021920e-02 -2.44955607e-02
      1.00743614e-01 1.84711684e-02 1.84711684e-02 -3.00257988e-02
      -2.19819874e-01 -9.34234560e-02 -1.77283958e-02 -2.30852347e-02
      7.01178005e-03 3.11829764e-02 1.61070585e-01 -3.46101001e-02
      -1.90113246e-01 -6.48685321e-02 -2.47438401e-02 -4.72004861e-02
      -1.02890447e-01 -8.54446515e-02 3.17130471e-03 9.49811637e-02
      7.18339859e-03 -6.27543824e-03 -4.79431497e-03 -1.70997642e-02
      -6.07361980e-02 -2.15416461e-01 -9.05262083e-02 7.46620297e-02
      8.07837546e-02 2.11984962e-01 -1.95416547e-02 -7.24263191e-02
      -1.98248439e-02 -7.53719434e-02 -1.00990988e-01 -1.09388240e-01
      5.45015149e-02 8.07837546e-02 8.91159847e-02 -3.25536691e-02
      -3.87462229e-02 -2.78735179e-02 -1.23146623e-02 6.06937800e-04
      -7.92586207e-02 -1.34850711e-01 -5.68990931e-02 -4.01508659e-02
      1.12107536e-02 -7.08521064e-03 -5.33405244e-02</_>
    <_>
      3.66505347e-02 2.24624109e-02 -6.64360151e-02 6.18475303e-03
      2.07951516e-02 3.67503129e-02 -9.92173981e-03 -1.61865912e-02
      -6.81083724e-02 6.79006521e-03 6.79006521e-03 6.79006521e-03
      -2.65856944e-02 -8.43792129e-03 6.98713064e-02 1.02615831e-02
      -2.78872158e-02 -6.84994310e-02 -1.54683795e-02 3.47944275e-02
      3.34136598e-02 1.25150299e-02 -1.84485083e-03 1.70350410e-02
      3.22068296e-02 2.37660166e-02 -1.61172580e-02 5.81524707e-03
      3.13737355e-02 6.80801272e-02 4.25753882e-03 4.78299393e-04
      -3.26324031e-02 -4.35502045e-02 -9.18470323e-02 -7.67841376e-03
      -3.29275429e-02 -3.66039686e-02 -1.49160460e-01 1.63552444e-02
      1.35017917e-01 1.06076598e-01 2.63335332e-02 2.46632844e-02
      -3.29275429e-02 -3.29275429e-02 -2.03771740e-02 1.16561033e-01
      5.83072416e-02 7.53191486e-02 1.27530470e-02 6.25529326e-03
      1.78799909e-02 5.02527878e-03 -3.25695910e-02 -9.67197400e-03
      1.14901562e-03 -3.53763928e-03 2.25194413e-02 3.46347056e-02
      5.34028374e-02 -7.89290965e-02 -1.49500936e-01 -6.44550622e-02
      -1.12224333e-02 -5.37062250e-02 -5.19652851e-02 2.43399546e-01
      2.94638306e-01 1.51636479e-02 -3.89215462e-02 -1.12267375e-01
      -8.19974914e-02 -1.95603762e-02 -3.57849663e-03 2.99981376e-03
      4.71526906e-02 9.22586322e-02 2.08401233e-01 -3.77000123e-02
      -1.70598194e-01 4.00898606e-03 9.40798130e-03 7.64738768e-03
      -2.36080159e-02 -3.31725329e-02 1.05309844e-01 2.65150573e-02
      8.42311699e-03 2.44187610e-03 6.36929646e-03 -1.06080240e-02
      -4.55590785e-02 -6.33459017e-02 -1.64265096e-01 1.55415628e-02
      1.13372125e-01 9.99057740e-02 3.91050242e-02 -5.81936073e-03
      2.43616244e-03 -7.85434712e-03 -9.17577278e-03 1.66094117e-02
      4.34204638e-02 6.34063557e-02 4.77829687e-02 4.25337255e-03
      6.08897768e-03 -1.22400001e-03 2.05295905e-03 1.06020299e-04
      -1.09160515e-02 -3.08167581e-02 1.20693110e-02 2.08555460e-02
      1.42866345e-02 9.72400978e-03 1.76760983e-02 3.30636129e-02
      -8.27096310e-03 -7.77422637e-03 -4.56139818e-03 5.64507805e-02
      1.96213927e-02 6.57970831e-03 -1.88965164e-02 -3.39083038e-02
      -1.98664106e-02 2.97437385e-02 -4.46589738e-02 -3.87765020e-02
      6.06098883e-02 3.66137214e-02 2.58623133e-03 5.76655939e-03
      1.30054262e-03 -1.48057695e-02 5.02013713e-02 1.03006996e-01
      1.14570051e-01 9.70477164e-02 2.99104135e-02 7.76712259e-04
      3.86408158e-03 -6.21650415e-03 -6.35021692e-03 -1.62484888e-02
      3.22140846e-03 2.86886413e-02 1.25904046e-02 1.21578034e-02
      6.06787391e-03 1.09312907e-02 2.38039028e-02 4.37988527e-02
      6.96417410e-03 -1.16713136e-01 -3.12256925e-02 4.56408161e-04
      1.27286324e-02 1.02547305e-02 6.08652318e-03 3.01394574e-02
      2.37075761e-02 -5.46283796e-02 -1.01238631e-01 -6.72707111e-02
      6.33784533e-02 4.39096801e-02 2.11052299e-02 -3.88429593e-03
      2.68613528e-02 5.21924719e-02 6.33134395e-02 -5.59356948e-03
      -4.99590859e-03 6.87886700e-02 7.78454868e-03 -7.04279030e-03
      1.54414149e-02 5.78585663e-04 8.82584776e-04 4.11131233e-03
      2.84990501e-02 2.33442672e-02 1.71911754e-02 1.14208749e-02
      1.40213007e-02 6.41900720e-03 1.17253158e-02 2.66680177e-02
      5.47080785e-02 -3.37420441e-02 -9.26541835e-02 -2.66631357e-02
      6.37370208e-03 7.89957587e-03 3.86227071e-02 1.29356116e-01
      1.19897291e-01 5.05393080e-04 -2.30877489e-01 -1.51015460e-01
      -1.75948683e-02 7.80614419e-03 1.75737813e-02 8.08202196e-03
      5.38006052e-02 5.43144979e-02 2.70209424e-02 -1.80416461e-02
      -3.37182507e-02 1.68129187e-02 -3.37063521e-03 -3.24077834e-03
      6.85313530e-03 3.85377207e-03 3.47677730e-02 3.17341015e-02
      7.08034262e-03 4.87034116e-03 6.28828723e-03 5.26065566e-03
      5.68367913e-03 -2.06264909e-02 -9.93042253e-03 8.04027356e-03
      4.12670970e-02 2.16252506e-02 6.33098185e-04 -1.22541119e-03
      -7.15683820e-03 -1.39506198e-02 -4.19446547e-03 1.22514274e-02
      2.94280145e-03 3.32975611e-02 7.49529013e-03 -9.57777053e-02
      -7.02353567e-02 -3.83206010e-02 7.23486999e-03 1.98483914e-01
      1.75518692e-01 1.06930882e-01 -1.15373544e-02 -7.64813721e-02
      -1.71296835e-01 -1.42961055e-01 -5.71301691e-02 6.44098073e-02
      6.45773262e-02 6.15575127e-02 4.07033935e-02 9.83921718e-03
      -1.63180511e-02 -1.89678073e-02 -1.07630948e-02 7.89422716e-04
      2.54387297e-02 -3.61104384e-02 5.95706403e-02 9.97785628e-02
      6.77849054e-02 7.16785807e-03 -1.49577027e-02 -3.68851535e-02
      -5.50343245e-02 -7.47059807e-02 1.51307687e-01 5.55502214e-02
      -7.88200423e-02 -1.89238682e-01 -1.83191612e-01 -1.50161609e-01
      -8.49527121e-02 -3.41410376e-02 4.23157662e-02 6.53001219e-02
      2.23119985e-02 2.23119985e-02 -3.46562564e-02 -9.26125273e-02
      -8.19811374e-02 -5.58353923e-02 -1.09602496e-01 -7.06116036e-02
      1.33909956e-01 1.50847793e-01 6.45176619e-02 -4.35685143e-02
      -1.18794978e-01 -3.59593667e-02 -5.55015877e-02 -6.16831630e-02
      4.46566306e-02 -4.54414636e-02 -2.76794210e-02 -8.54472164e-03
      -9.40459874e-03 1.01033710e-02 6.36317115e-03 1.59650985e-02
      6.73378184e-02 -1.08482884e-02 8.15788358e-02 3.58165279e-02
      4.09389623e-02 2.55651288e-02 -1.69470962e-02 -2.26111814e-01
      -3.01970914e-02 -7.08433287e-03 1.19421355e-01 -4.01841328e-02
      -2.01981679e-01 -1.13870822e-01 -3.11767850e-02 -7.43679004e-03
      -7.31031150e-02 5.07120155e-02 4.37664054e-02 2.47773752e-02
      9.28433388e-02 -6.69527873e-02 -1.00573920e-01 -6.22623153e-02
      -1.17994346e-01 -8.21585134e-02 1.95620600e-02 1.59870327e-01
      2.06434160e-01 -1.42309023e-02 -1.16971675e-02 -4.76644636e-04
      6.98846020e-03 3.42732705e-02 7.09751025e-02 7.18565211e-02
      1.20442584e-02 -2.46262792e-02 1.01858683e-01 1.30479177e-02
      -1.58183873e-02 -2.92923562e-02 -4.44071814e-02 -3.27391103e-02
      -4.97358590e-02 2.85595097e-02 1.23839691e-01 -2.95492280e-02
      -6.96723014e-02 -2.22959556e-02 7.61921052e-03 4.17165197e-02
      -8.95237830e-03 -1.35002891e-02 -2.44472399e-02 2.42971983e-02
      2.25380752e-02 -1.05201565e-02 -1.17180543e-02 -7.07891816e-03
      -3.52709554e-03 4.56115929e-03 2.07331274e-02 3.36786918e-02
      2.99682096e-02 -1.14303464e-02 -4.10823300e-02 -2.26080716e-01
      3.28295194e-02 7.54403844e-02 9.17549059e-02 3.14506097e-03
      7.03623239e-03 3.16868979e-03 -4.18119244e-02 -4.74465229e-02
      -2.06075683e-01 5.92289865e-03 3.28295194e-02 2.67604649e-01
      1.30094420e-02 3.93962162e-03 -1.27986930e-02 -3.30430716e-02
      -1.37737080e-01 -1.92009702e-01 3.28295194e-02 6.36758581e-02
      1.35745378e-02 -1.43120131e-02 -1.02519020e-02 -1.42775187e-02
      -8.57841447e-02 -7.79086128e-02 -4.68734726e-02 7.37497136e-02
      1.60338487e-02 1.59652770e-01 2.30986718e-02 -2.38473713e-02
      -3.97379063e-02 -5.20057827e-02 -1.18559070e-01 7.19941081e-03
      -8.07761252e-02 -9.98781342e-03 2.80855838e-02 1.93144843e-01
      1.05922990e-01 -5.92909753e-03 -1.00265160e-01 -4.56194114e-03
      2.47352291e-02 2.23679021e-02 1.57930568e-01 2.62632482e-02
      -6.84642345e-02 -1.62590995e-01 -1.67880237e-01 -5.27841263e-02
      -3.30282794e-03 1.45939970e-02 1.08605370e-01 5.84589653e-02
      9.63092409e-03 3.18220742e-02 -3.28526534e-02 -9.71116647e-02
      -2.48642135e-02 -1.80531740e-02 -3.96371679e-03 -1.32454755e-02
      2.02047527e-02 5.15992157e-02 2.62632482e-02 -1.72414780e-01
      -4.87221368e-02 -1.18567636e-02 -3.18783782e-02 -4.56605991e-03
      2.62632482e-02 2.62632482e-02 3.06439362e-02 1.03110544e-01
      -8.01184177e-02 -8.47913511e-03 2.65814830e-02 6.78762570e-02
      1.77256361e-01 -7.76419416e-02 -9.32033956e-02 -1.55254556e-02
      -4.35875962e-03 -1.41772209e-02 3.37820649e-02 7.02395244e-03
      9.16303881e-03 3.81046422e-02 -1.50188478e-02 -9.84915495e-02
      5.00646457e-02 9.48144272e-02 6.08025305e-02 1.54827284e-02
      3.15835560e-03 1.70259941e-02 2.03037441e-01 4.26099189e-02
      -5.74860796e-02 -7.39660189e-02 2.08653957e-01 1.20484829e-01
      1.56777855e-02 3.80273350e-02 2.50094011e-02 -1.51116457e-02
      -2.96748318e-02 -5.74860796e-02 -5.74860796e-02 1.40876174e-01
      1.93409454e-02 3.65703627e-02 7.24843424e-03 1.13957375e-03
      -5.14419600e-02 -1.86939895e-01 -2.73181293e-02 1.75889075e-01
      8.32347870e-02 1.40570570e-02 6.34811353e-03 7.40495883e-03
      4.44931015e-02 9.72530097e-02 4.53199595e-02 -8.89830515e-02
      -4.23347466e-02 -1.03987530e-02 -1.01676921e-03 1.07179105e-03
      2.88530719e-02 7.56663755e-02 2.37508625e-01 1.55294448e-01
      -5.19327037e-02 -6.99831471e-02 -7.03357486e-03 4.20076028e-03
      8.09689704e-03 3.34291384e-02 5.45938127e-02 1.00052774e-01
      -3.59654501e-02 -5.19327037e-02 -5.19327037e-02 5.51781133e-02
      2.18041358e-03 1.86042916e-02 1.09847151e-02 1.11058401e-02
      9.89847910e-03 -9.67759266e-03 -3.82193066e-02 6.21203296e-02
      2.47388333e-02 2.17399839e-02 6.82249526e-03</_>
    <_>
      1.14952914e-01 -2.75894739e-02 -3.26226093e-02 7.91452006e-02
      1.11855799e-03 2.67704632e-02 -9.17425030e-04 -1.93513092e-02
      -5.69686480e-02 -3.26346904e-02 -3.26346904e-02 -3.26346904e-02
      -1.65406778e-01 -1.30291458e-03 1.52840018e-01 5.92869036e-02
      1.80165723e-01 -3.47239450e-02 4.45564166e-02 3.64522599e-02
      1.84661746e-02 -1.55368119e-01 -5.68585619e-02 -9.89269465e-03
      2.69783679e-02 9.86659247e-03 1.61803719e-02 -2.49598157e-02
      1.53093129e-01 8.27974305e-02 1.48051744e-02 1.90162007e-02
      1.44220144e-03 -5.89294843e-02 -7.81956315e-02 -9.54291075e-02
      -4.93720099e-02 -5.07609099e-02 -8.53877291e-02 7.93708339e-02
      2.63847828e-01 1.89230412e-01 2.17075013e-02 -1.16142789e-02
      -4.93720099e-02 -4.93720099e-02 -3.24820168e-02 1.55667543e-01
      6.93914443e-02 7.78101832e-02 1.02088675e-02 -3.20227072e-02
      -3.14822942e-02 -1.13820411e-01 -8.55897143e-02 -5.51155619e-02
      -2.41351724e-02 -8.99751019e-03 1.93926003e-02 5.91581464e-02
      5.48280217e-02 -1.45109311e-01 -1.28046989e-01 -6.65225834e-02
      -4.60899025e-02 -3.05991638e-02 4.24369499e-02 3.17080915e-01
      4.12233740e-01 -7.22450241e-02 -7.33115748e-02 -1.48023441e-01
      -3.48932785e-03 -1.25381704e-02 2.16723536e-03 7.65633024e-03
      4.57305200e-02 1.12346590e-01 9.18906555e-02 -8.76875594e-02
      -6.28402876e-03 7.61438673e-03 2.92226840e-02 1.49285197e-02
      -1.95590220e-02 -5.10746390e-02 1.48788020e-01 5.98288551e-02
      3.12590040e-02 1.03875995e-02 4.23034579e-02 3.99533194e-03
      -6.47332743e-02 -5.78615516e-02 -2.38462776e-01 6.99820518e-02
      2.11930439e-01 1.57135978e-01 7.58416504e-02 8.75620637e-03
      -3.15576866e-02 -7.03834519e-02 2.35034302e-02 4.54304442e-02
      6.95262551e-02 9.56637040e-02 8.76405016e-02 3.54239233e-02
      1.01769622e-02 4.27651731e-03 -4.93811117e-03 -1.35791656e-02
      -1.60262454e-02 4.58446052e-03 2.69971620e-02 3.48094255e-02
      2.23414842e-02 1.37075093e-02 3.90260406e-02 5.01739085e-02
      2.96974480e-02 -8.80664811e-02 3.26911472e-02 1.21924236e-01
      4.38535362e-02 2.09160559e-02 8.72674119e-03 -4.83998433e-02
      -3.28998417e-02 5.95798604e-02 -9.23918635e-02 -8.06575269e-02
      1.62116766e-01 9.34204832e-02 6.86333552e-02 -4.18868894e-03
      -3.16014625e-02 -2.34335312e-03 1.19954780e-01 1.36428833e-01
      1.41525373e-01 1.08306296e-01 2.50351056e-02 1.13286814e-02
      -4.13625222e-03 2.80013937e-03 1.76065862e-02 1.23872729e-02
      1.68495681e-02 4.16928641e-02 -1.94741730e-02 -1.23758391e-02
      2.70593772e-03 1.49258114e-02 4.62659746e-02 5.41014485e-02
      -9.59102530e-03 -1.55137405e-01 2.04388648e-02 3.56638357e-02
      4.14856523e-02 2.56139264e-02 2.46197861e-02 1.09779634e-01
      8.19604844e-02 -1.01279311e-01 -1.57758251e-01 -1.30341962e-01
      8.94530118e-02 2.65207998e-02 4.24685739e-02 2.87190136e-02
      6.82488978e-02 1.12436861e-01 7.43716285e-02 -1.31745130e-01
      2.16280818e-02 1.27218261e-01 3.18412706e-02 3.41272652e-02
      2.43855137e-02 5.00465324e-03 4.50581983e-02 5.80838807e-02
      3.61359566e-02 1.96138993e-02 1.45126274e-02 1.12110758e-02
      2.22403966e-02 9.45627503e-03 3.78938355e-02 4.82507311e-02
      8.34328905e-02 -1.21865772e-01 -6.54381365e-02 -7.34166196e-03
      1.24746067e-02 1.15250787e-02 3.64105813e-02 1.49627477e-01
      1.59143314e-01 7.18785301e-02 -3.12400460e-01 -2.41330862e-01
      -6.32604631e-03 1.96158215e-02 2.15640198e-02 1.77874248e-02
      7.22903833e-02 8.64191726e-02 2.55980752e-02 -8.43564868e-02
      -6.30274862e-02 3.92376631e-02 1.88368298e-02 1.58464033e-02
      5.89023530e-03 7.40427198e-03 5.61247468e-02 6.46129698e-02
      1.82709116e-02 6.59341412e-03 7.69186951e-03 8.88037961e-03
      7.33614527e-03 -1.46468487e-02 -1.16889400e-03 4.77269217e-02
      8.51972699e-02 3.93695496e-02 1.39098708e-03 2.62726448e-03
      1.51201373e-03 -4.09748318e-04 7.52995685e-02 3.03723272e-02
      6.36301488e-02 1.01232760e-01 2.38530673e-02 -5.71827441e-02
      -2.75977738e-02 -3.49860527e-02 -6.28589978e-03 4.84861918e-02
      2.01140456e-02 6.19185232e-02 9.36614648e-02 5.08513264e-02
      -9.34860203e-03 -2.04170831e-02 -4.37907279e-02 -1.00240253e-01
      -1.52394054e-02 1.03379317e-01 9.52477157e-02 4.07294221e-02
      8.35510623e-03 -8.12945608e-03 -1.45823434e-02 -3.16486359e-02
      -4.99615930e-02 -1.25395013e-02 1.01938717e-01 1.61835894e-01
      7.51994252e-02 6.83457404e-03 -1.56989694e-02 -1.01952534e-02
      -1.41277853e-02 -2.56867446e-02 9.19057578e-02 -6.28626049e-02
      -2.10078955e-01 -2.03859240e-01 -7.28133172e-02 -4.31812070e-02
      5.85080162e-02 7.62707368e-02 1.16622828e-01 -6.28626049e-02
      -6.28626049e-02 -2.85492074e-02 1.19199276e-01 7.32646063e-02
      3.35966162e-02 6.95137009e-02 -3.33034471e-02 -1.59049153e-01
      4.29189466e-02 1.67500347e-01 1.78160921e-01 -2.41910852e-02
      -2.82853246e-02 3.10617145e-02 -1.10580958e-03 -3.87715325e-02
      -1.99780110e-02 -3.23566720e-02 -1.30641013e-02 -2.80931476e-03
      -1.51381013e-03 3.10853813e-02 9.95719433e-02 8.43349770e-02
      8.92674476e-02 1.04090916e-02 2.52905451e-02 4.34586406e-02
      2.83165202e-02 2.42614336e-02 8.13374445e-02 -5.65582141e-03
      -1.38142398e-02 -7.96731859e-02 -6.95215911e-02 -1.26335278e-01
      -2.11762488e-01 -6.25380054e-02 2.15402152e-02 4.71224189e-02
      -5.92258666e-03 1.36784390e-01 -9.05565694e-02 -8.38611424e-02
      -4.56677191e-02 -4.06081975e-02 -2.44225608e-03 2.97286659e-02
      -7.24608377e-02 -1.10581264e-01 2.76286285e-02 1.69045150e-01
      1.40862748e-01 -1.60655510e-02 -7.39539135e-03 -1.37689069e-03
      1.17961988e-02 5.58103584e-02 1.09219991e-01 9.69759673e-02
      2.34469157e-02 5.50535694e-03 7.53061771e-02 -2.75049806e-02
      -4.57619913e-02 -2.96503231e-02 -1.24082817e-02 5.39855957e-02
      8.57503489e-02 9.25087854e-02 1.42047182e-01 -6.68104813e-02
      -8.35483819e-02 -3.99641432e-02 -8.46982189e-03 5.71966916e-02
      6.13678526e-03 1.00228731e-02 7.60610849e-02 -4.36920533e-03
      -4.33591269e-02 -7.35215610e-03 7.10239122e-03 -2.08070409e-03
      2.49953046e-02 1.77201331e-02 3.79220843e-02 2.70274337e-02
      -4.18460071e-02 -1.28299845e-02 -1.03182383e-02 -8.50346312e-02
      8.87465477e-03 8.87465477e-03 5.47111779e-02 3.80008807e-03
      2.72133714e-03 -4.85593366e-04 -3.33901308e-02 -3.82150486e-02
      -2.89601218e-02 6.97696116e-04 8.87465477e-03 1.01593673e-01
      -1.33099477e-03 -2.43035820e-03 -1.24293063e-02 -2.10387185e-02
      2.37240251e-02 -1.58315256e-01 8.87465477e-03 1.78485531e-02
      -3.37809287e-02 -4.43935283e-02 -1.97745450e-02 -3.10213994e-02
      -3.06933895e-02 6.57296553e-02 8.64866935e-03 9.36316773e-02
      3.08372006e-02 -3.47791016e-02 -1.48003891e-01 -1.64442472e-02
      -2.46482412e-03 -1.05179157e-02 -1.22736640e-01 -4.62934636e-02
      -2.47105509e-02 9.12613142e-03 7.69846663e-02 5.00488542e-02
      5.23320921e-02 9.12613142e-03 5.11256792e-02 1.05512142e-02
      -1.08148865e-02 -5.28905019e-02 7.60749429e-02 -1.63030010e-02
      -2.27725077e-02 8.56681354e-03 3.61924022e-02 1.35327041e-01
      6.48619384e-02 -2.06583813e-01 -2.90611442e-02 3.82352397e-02
      1.55616235e-02 9.84614715e-02 5.71664944e-02 1.08493134e-01
      2.73206457e-03 -1.01957293e-02 -1.01748826e-02 -6.62530959e-02
      -5.11749238e-02 -1.63030010e-02 -1.63030010e-02 1.97865758e-02
      1.30619034e-02 4.99670906e-03 -4.49327081e-02 -4.98015098e-02
      -1.63030010e-02 -1.63030010e-02 -6.46600500e-02 7.35409632e-02
      2.87650898e-02 5.49508817e-02 7.42437551e-03 -3.47369611e-02
      6.19762875e-02 -9.61887762e-02 -6.37034103e-02 1.84302442e-02
      3.79261598e-02 3.87670249e-02 2.48409942e-05 1.25355283e-02
      6.52285176e-04 -3.16836080e-03 -1.70206681e-01 -1.41464487e-01
      5.81116416e-02 1.10354066e-01 7.72465020e-02 2.30700430e-02
      2.65472177e-02 -1.01786647e-02 7.17502609e-02 -1.63144261e-01
      -1.63144261e-01 2.64533907e-01 3.26153785e-01 1.53254002e-01
      4.51911353e-02 4.26120795e-02 3.39493006e-02 -2.88962666e-02
      -1.71466827e-01 -1.38689712e-01 3.08681518e-01 2.44972467e-01
      3.53895910e-02 4.38741036e-02 1.96420751e-06 -5.04343305e-03
      -1.19476523e-02 -7.61459544e-02 9.03000161e-02 2.25970700e-01
      9.01917294e-02 5.65609196e-03 6.93235488e-04 1.22616710e-02
      4.48579714e-02 9.23784301e-02 8.37880671e-02 5.95673220e-03
      -1.25778299e-02 -4.81188484e-03 -2.99416133e-03 1.31582026e-03
      2.44860351e-02 6.82143345e-02 3.01479489e-01 3.46589267e-01
      -3.41821872e-02 -7.48237371e-02 -2.85722554e-01 -4.74792011e-02
      -1.53630192e-03 8.43365211e-03 4.84810919e-02 1.09340310e-01
      1.75840303e-01 -3.41821872e-02 -3.41821872e-02 -3.32168281e-01
      -9.62673724e-02 -1.62317492e-02 1.71738416e-02 2.82954443e-02
      2.43171919e-02 2.39473954e-02 -8.86159986e-02 -1.16446503e-01
      -7.26561248e-02 3.48244933e-03 3.69963655e-03</_>
    <_>
      4.28240299e-02 2.45905332e-02 1.44320147e-04 1.36674903e-02
      2.93108150e-02 3.78824323e-02 2.36325972e-02 1.56743247e-02
      6.96796412e-03 1.33066075e-02 3.96529352e-03 3.96529352e-03
      -6.79942071e-02 -6.39295131e-02 -9.46285389e-03 1.31865796e-02
      -1.08197313e-02 6.46709874e-02 1.40371323e-02 2.50683017e-02
      2.63682473e-02 -3.60314585e-02 -2.93403841e-03 -5.50985010e-03
      3.01294448e-03 -7.03520924e-02 -1.31805856e-02 -1.13613047e-02
      6.35089353e-02 4.39720228e-02 -9.88164358e-03 -2.20822892e-03
      5.87724103e-03 -8.07431806e-03 -2.01314650e-02 -3.53421010e-02
      -5.37225455e-02 -5.82700856e-02 -3.17306742e-02 1.78335235e-02
      1.25729576e-01 1.21801175e-01 7.80852363e-02 3.52898166e-02
      -5.37225455e-02 -5.37225455e-02 -1.02840727e-02 1.09894164e-01
      4.26733457e-02 5.85305691e-02 1.36320712e-02 2.70296913e-03
      1.81766730e-02 8.90142471e-03 -1.25302477e-02 -2.52033044e-02
      -5.88695938e-03 -6.29051635e-03 1.26691526e-02 1.64158028e-02
      8.09573196e-03 -6.62513822e-02 -7.70062655e-02 -4.11422066e-02
      -2.94619370e-02 -2.56425589e-02 1.05573339e-02 2.07555801e-01
      2.05544069e-01 3.98789234e-02 -5.00047356e-02 -9.71248150e-02
      -6.94692358e-02 -2.55784150e-02 -8.45601317e-03 4.43956815e-03
      4.56922688e-02 9.90808755e-02 1.89122960e-01 -5.04007787e-02
      -1.36259079e-01 1.63427799e-03 3.30475252e-03 -2.28286833e-02
      -1.42259570e-02 4.37423922e-02 1.26974985e-01 2.80589350e-02
      4.31614323e-03 6.85697480e-04 2.39991341e-02 2.53739934e-02
      2.94978116e-02 -4.13727760e-03 -1.51691139e-01 -4.68874350e-02
      6.42864555e-02 6.63868412e-02 3.30120474e-02 9.09343455e-03
      -3.54484352e-03 -2.97576059e-02 -8.31326935e-03 -5.29229566e-02
      -3.79960015e-02 2.46304404e-02 4.06506136e-02 2.97283195e-02
      -1.06315303e-03 -1.42465550e-02 -8.22754484e-03 -1.99359213e-03
      4.34182258e-03 1.63795538e-02 2.60162745e-02 2.06326470e-02
      9.69618279e-03 5.16331708e-03 9.44506843e-03 1.57650299e-02
      -6.45517325e-03 1.28693189e-02 1.05704255e-01 5.52316904e-02
      1.40851187e-02 7.09834648e-03 2.20225994e-02 2.31170636e-02
      7.05688745e-02 2.48132646e-02 -6.51096404e-02 -5.77143133e-02
      3.73943709e-02 4.38394621e-02 2.87556890e-02 -2.54871952e-03
      -3.28887738e-02 -4.39029820e-02 3.69045250e-02 5.43388957e-03
      -2.12949980e-02 1.80206634e-02 2.55681928e-02 2.09533088e-02
      4.40643774e-03 -5.04638208e-03 -4.61740280e-03 5.60819125e-03
      3.40748765e-02 6.45119026e-02 3.66259366e-02 1.95639152e-02
      8.35965946e-03 4.83843638e-03 1.06229940e-02 2.55898144e-02
      8.10904801e-02 -4.19478640e-02 -2.30764169e-02 1.12984981e-03
      5.11987647e-03 5.05412882e-03 3.57591324e-02 7.83709958e-02
      5.43681160e-02 -5.65825142e-02 -9.86675099e-02 -2.16615088e-02
      7.50902966e-02 5.34030572e-02 3.79801318e-02 2.23311521e-02
      4.90151420e-02 6.12525530e-02 -1.62711684e-02 -5.55049218e-02
      -5.73578000e-04 3.04802433e-02 2.10683923e-02 1.99713968e-02
      2.45313440e-02 2.31219083e-02 3.21079940e-02 3.47381234e-02
      2.21542008e-02 1.21529140e-02 8.53618607e-03 1.34640504e-02
      1.52510358e-02 4.73576831e-03 1.01134293e-02 2.09155157e-02
      7.22572058e-02 2.20735930e-02 -6.19241931e-02 -4.78833765e-02
      1.81199773e-03 4.68533905e-03 3.10531706e-02 9.51889381e-02
      6.20798618e-02 -3.70896198e-02 -1.31111979e-01 -5.08345775e-02
      1.10230641e-03 1.96804646e-02 1.98585652e-02 1.42224189e-02
      4.09834385e-02 2.93876901e-02 -2.69929785e-02 -3.54594216e-02
      -7.06537534e-03 1.83432158e-02 1.69535037e-02 7.09574576e-03
      -2.37918785e-03 4.36182600e-04 3.69670838e-02 4.53833602e-02
      1.40114026e-02 8.68848816e-04 3.94748844e-04 2.36718007e-03
      -1.60593283e-03 -2.43251827e-02 -3.62781389e-03 3.31538916e-02
      6.16405718e-02 2.67288946e-02 -1.33221433e-03 -3.35525023e-03
      -6.33339072e-03 -1.38572501e-02 -2.75876410e-02 -2.93429922e-02
      -1.87325571e-02 6.32440895e-02 5.34392148e-03 -3.69749144e-02
      -3.28821577e-02 -3.65198217e-02 -6.06756890e-03 8.25433359e-02
      7.92642906e-02 4.18710113e-02 -2.37447191e-02 -3.27882506e-02
      -3.47306542e-02 -3.39120254e-02 -3.90276946e-02 -1.22045539e-03
      6.15313463e-02 7.93004557e-02 5.15379459e-02 9.42334533e-03
      -9.08690225e-03 -1.70935858e-02 -1.16921412e-02 6.56473637e-03
      3.22014876e-02 -9.77528631e-04 7.54472464e-02 6.96940869e-02
      3.26193944e-02 -1.70563105e-02 -4.92618643e-02 -4.78196740e-02
      -6.13820516e-02 -5.48735894e-02 1.17055155e-01 1.87967755e-02
      -6.53156266e-02 -1.53406695e-01 -9.45654809e-02 -1.03984669e-01
      -2.14760620e-02 -1.48287341e-02 2.18486451e-02 2.41068541e-03
      2.41068541e-03 8.54157284e-02 3.89682548e-03 -2.01081187e-02
      -1.26317497e-02 -1.96640901e-02 -7.58770928e-02 -9.86882821e-02
      8.51837397e-02 1.21627420e-01 3.14324573e-02 -6.91876188e-02
      -5.33561483e-02 -1.50710009e-02 -2.37683300e-02 -3.50692160e-02
      3.37282103e-03 -2.59496104e-02 -1.61399767e-02 -1.54519733e-02
      -1.45272203e-02 -1.15000578e-02 -2.73856763e-02 -3.22377644e-02
      7.97846168e-02 2.18563378e-02 -1.11236693e-02 -3.10693886e-02
      1.88755188e-02 2.79445201e-02 4.23583537e-02 -4.11048718e-02
      -2.17811875e-02 -4.21439996e-03 4.50188629e-02 -3.40873115e-02
      -1.59058303e-01 -1.90099031e-01 -6.23703487e-02 3.04660294e-02
      4.15652469e-02 1.82476878e-01 1.47540495e-01 5.93154244e-02
      7.54922554e-02 -3.56863067e-02 -7.42693692e-02 -1.98678747e-02
      -3.40716690e-02 -8.28780159e-02 -3.57130496e-03 9.44362730e-02
      1.40332013e-01 -7.99405947e-03 -6.06128713e-03 -1.04951598e-02
      -3.92964669e-03 1.79442037e-02 5.89408986e-02 4.89035770e-02
      3.44263278e-02 5.98589377e-03 1.94737371e-02 9.51057300e-03
      -1.98304504e-02 -2.57266127e-02 -3.28082554e-02 2.63599455e-02
      -1.41151017e-02 -1.15250312e-02 3.60380672e-02 -6.99782073e-02
      -1.17572442e-01 -1.11527398e-01 -3.37814800e-02 4.10027690e-02
      4.47829589e-02 7.29471073e-02 3.76479067e-02 -3.00219357e-02
      1.87121816e-02 -1.96639285e-03 -2.20603067e-02 -1.33346189e-02
      6.32894784e-03 1.49014546e-02 2.61930376e-02 2.18497217e-02
      1.17670102e-02 -2.98115965e-02 -1.21546939e-01 -1.71655610e-01
      2.31283605e-02 1.64248303e-01 7.17169642e-02 4.22493060e-04
      -5.88940037e-03 -5.60465781e-03 -5.03232218e-02 -9.92619842e-02
      -1.43387914e-01 4.92129847e-03 6.29659221e-02 1.73780724e-01
      6.88167801e-03 -2.10982356e-02 -3.41461636e-02 -5.99552356e-02
      -1.89674824e-01 -1.40278921e-01 2.31283605e-02 9.61199105e-02
      3.39955911e-02 -3.12609016e-03 -2.91099632e-03 -7.17620784e-03
      -1.14957012e-01 -1.37255862e-01 -8.41310620e-02 1.03546679e-01
      9.89273638e-02 1.33216247e-01 5.16135991e-02 -3.72248748e-03
      -5.22198267e-02 -1.44359702e-02 -5.48297055e-02 9.67597216e-02
      -2.05661301e-02 7.05586397e-04 -1.76576152e-02 9.26619396e-03
      7.63306487e-03 7.05586397e-04 -3.77996564e-02 2.43846755e-02
      3.55176926e-02 2.92133875e-02 1.33035198e-01 2.39437390e-02
      -7.28305578e-02 -1.66602015e-01 -1.65290028e-01 -6.25252351e-02
      -1.14569683e-02 1.09795136e-02 1.75762817e-01 1.30788073e-01
      1.28483465e-02 -4.76912484e-02 -1.22633614e-01 -1.34301648e-01
      -8.40279181e-03 -4.68408363e-03 1.35000944e-02 4.83936928e-02
      6.94872215e-02 9.95464921e-02 2.39437390e-02 -1.61761299e-01
      -6.28442168e-02 -1.39490236e-02 -2.49454007e-02 4.02704403e-02
      7.98476636e-02 2.39437390e-02 1.44827273e-02 6.50120452e-02
      -1.16458416e-01 -4.68828753e-02 3.22489738e-02 8.78520608e-02
      9.09481123e-02 -1.02558523e-01 -5.64713590e-02 9.23965417e-04
      2.59165908e-03 2.59165908e-03 -2.58028377e-02 -6.50766259e-03
      3.91275156e-03 3.36428769e-02 5.19894287e-02 -4.40317439e-03
      -5.45411967e-02 -3.93465050e-02 -6.19263202e-02 -3.55251171e-02
      -3.39137763e-02 1.34418868e-02 1.94926977e-01 1.67763785e-01
      4.69885133e-02 -8.45718104e-03 -1.11150227e-01 -1.26275539e-01
      -9.97973159e-02 -1.26780523e-02 -2.54441821e-03 1.95866227e-02
      8.30927566e-02 1.07278293e-02 1.07278293e-02 -1.44360483e-01
      -9.64292437e-02 -3.63964848e-02 -5.10235829e-03 -9.53812618e-03
      -5.47022279e-03 6.66102115e-03 6.70029148e-02 2.13293824e-02
      -6.94451109e-02 -3.13748978e-02 -1.08390590e-02 -4.40840982e-02
      -8.07549953e-02 -1.32876895e-02 2.50906628e-02 2.95802988e-02
      1.56943202e-02 -2.15087831e-03 -2.69457488e-03 -1.03849098e-02
      -6.53669760e-02 -1.66389465e-01 -5.28372116e-02 5.57376184e-02
      5.57376184e-02 1.78932771e-01 -2.10203417e-02 -3.16932015e-02
      -1.64802894e-02 -4.80133034e-02 -1.56189337e-01 -1.41823158e-01
      -1.35497740e-02 5.57376184e-02 6.06593899e-02 5.91003755e-03
      -3.25750969e-02 -2.75394358e-02 -2.06725877e-02 -4.01717499e-02
      -5.97509667e-02 -7.13421106e-02 2.56278031e-02 6.34206980e-02
      1.71336662e-02 -1.24502471e-02 -3.13408896e-02</_>
    <_>
      3.15482020e-02 -1.32335201e-01 1.22923791e-01 1.09996609e-01
      -3.84985516e-03 -1.91117208e-02 2.66018342e-02 7.02522742e-03
      9.23291594e-02 -5.75243756e-02 -5.75243756e-02 -5.75243756e-02
      -9.35465395e-02 6.14967104e-03 8.15381631e-02 3.14938463e-02
      2.42174536e-01 1.07600637e-01 4.25097719e-02 -5.25502451e-02
      -3.05980798e-02 -2.21282378e-01 -2.51275189e-02 -1.39621962e-02
      -5.97221684e-03 -1.82334287e-03 3.48388739e-02 4.27681543e-02
      1.29760340e-01 1.52568985e-02 1.02639785e-02 2.02807281e-02
      5.13068251e-02 -3.09452675e-02 -1.34988630e-03 2.77900454e-02
      -1.50302006e-02 4.68913876e-02 1.66136742e-01 3.66702415e-02
      1.19695514e-02 -2.41678338e-02 -8.57917871e-03 1.73467342e-02
      -1.50302006e-02 -1.50302006e-02 -1.36119695e-02 -1.15215771e-01
      -1.90178882e-02 -2.40998846e-02 -1.58693735e-02 -1.09984502e-02
      -5.60165476e-03 -1.76822230e-01 -1.14664445e-02 -3.30622494e-02
      -3.07997037e-02 -6.88962219e-03 -1.03246914e-02 9.08167101e-03
      -7.78264180e-03 -2.60668918e-02 1.25870273e-01 7.83268288e-02
      -1.38787972e-02 1.67108718e-02 8.33967030e-02 -1.11930899e-01
      -8.38119388e-02 -3.25644724e-02 -1.36336666e-02 -1.36336666e-02
      1.28056049e-01 1.49957864e-02 -7.71114975e-03 1.22406501e-02
      1.31005631e-03 -1.08027691e-02 -1.76986203e-01 -1.60742477e-02
      1.94735631e-01 -3.39459372e-03 1.34486100e-03 -3.88924964e-03
      2.08058935e-02 2.76160482e-02 4.29171436e-02 2.00851131e-02
      2.30250391e-03 -1.24038052e-04 3.80650684e-02 2.38919556e-02
      -2.42616329e-03 4.00296189e-02 4.27241810e-03 5.25502525e-02
      5.41858859e-02 1.29524190e-02 2.05361210e-02 3.23532224e-02
      -5.88616170e-02 -7.90542364e-02 2.67279036e-02 6.89129159e-03
      1.89817660e-02 5.41425403e-03 1.92011725e-02 6.25827238e-02
      3.67250573e-03 2.90012313e-03 -1.24934278e-02 -2.19736062e-02
      -2.87886034e-03 6.45623282e-02 1.24821914e-02 2.55512283e-03
      -7.17756280e-04 -3.75626003e-03 1.63527136e-03 -2.85914657e-03
      5.59522845e-02 -5.14484718e-02 4.22171094e-02 4.82047312e-02
      1.21072596e-02 2.55395588e-03 1.10301692e-02 -3.91499326e-02
      -5.63797019e-02 5.32514788e-02 -2.68577319e-02 -2.68577319e-02
      6.56452551e-02 4.87582833e-02 3.95379998e-02 -4.22582217e-03
      -3.43505703e-02 -2.25064432e-05 2.30364017e-02 -1.13652991e-02
      -3.55848186e-02 -5.83563522e-02 -4.80378233e-03 1.96582973e-02
      -3.69448750e-03 1.55846728e-02 1.80701371e-02 3.31320427e-02
      1.26130506e-02 -1.36117591e-03 -4.00147140e-02 -2.27641556e-02
      -2.46001147e-02 -2.78932857e-03 -2.66517350e-03 -1.40723083e-02
      5.20444475e-03 3.62878963e-02 6.73757941e-02 4.21687476e-02
      3.73492227e-03 -1.82664604e-03 -4.85500786e-03 8.02449808e-02
      3.93975042e-02 -2.68577319e-02 -2.68577319e-02 -1.40257655e-02
      -2.79322197e-03 -1.79424956e-02 -9.45396163e-03 5.29058874e-02
      5.92104085e-02 3.73316482e-02 -1.05656326e-01 -5.59285916e-02
      2.67671123e-02 -1.37127200e-02 2.35512927e-02 4.97460663e-02
      9.25777014e-03 1.89960748e-02 3.62968110e-02 4.88486215e-02
      1.51067786e-02 -3.35975029e-02 -2.39578914e-02 -8.00909009e-03
      7.71255291e-04 -1.71061989e-03 -1.73838434e-05 -1.00521385e-04
      2.24364921e-02 -4.14717719e-02 8.21952671e-02 3.90123390e-02
      -4.43379860e-04 -1.32782408e-03 -1.57647897e-02 -3.80416424e-03
      7.45466445e-03 1.02196448e-02 -3.14920098e-02 -6.26076609e-02
      2.11403593e-02 1.70700457e-02 -5.84443053e-03 1.05218394e-02
      5.64371003e-03 1.21661462e-02 -3.24353687e-02 -5.42538725e-02
      -5.20420186e-02 6.47756550e-03 2.61385478e-02 1.15326140e-02
      -4.17791260e-03 -5.46227070e-03 5.84843848e-03 2.64998581e-02
      5.52843371e-03 -1.92195424e-04 2.36343732e-03 2.91907229e-03
      -8.38398119e-04 1.49958972e-02 2.59440877e-02 1.68262497e-02
      2.55417936e-02 8.88890494e-03 -7.04890536e-03 4.92029823e-04
      8.11047666e-03 1.82250105e-02 4.95636389e-02 6.63581863e-02
      3.39675210e-02 -4.30358900e-03 -3.54462788e-02 3.58698182e-02
      8.11906457e-02 2.85037700e-02 -8.70101620e-03 -1.08015478e-01
      -1.74186796e-01 -1.42364517e-01 7.89595246e-02 1.13952331e-01
      1.84329733e-01 1.69905663e-01 2.16353335e-03 -1.12756208e-01
      -1.30055519e-02 3.95985954e-02 3.99260223e-02 3.05189770e-02
      3.52286734e-02 1.54738883e-02 -8.04565474e-03 -4.87756841e-02
      -6.49729967e-02 5.23783900e-02 5.06986305e-02 -1.93963237e-02
      -3.72287035e-02 -8.06365814e-03 -1.03905890e-02 3.80750597e-02
      6.17162511e-02 8.91052857e-02 -8.55199769e-02 -1.08275183e-01
      -6.34572282e-02 -5.00488542e-02 9.99753922e-02 1.59602523e-01
      1.96798772e-01 1.05999127e-01 -3.00407726e-02 -1.49015620e-01
      -6.34572282e-02 -6.34572282e-02 1.09948769e-01 1.80027798e-01
      1.36045411e-01 1.47299677e-01 8.35301727e-02 -1.45375505e-01
      -5.74457310e-02 1.46113737e-02 5.19789979e-02 2.80851424e-02
      9.01265219e-02 5.79947829e-02 6.62191510e-02 4.01551928e-03
      -1.21198274e-01 5.82590885e-02 1.85388606e-02 5.67784486e-03
      9.38427076e-03 4.37322957e-03 6.30256757e-02 1.09489961e-02
      -3.04620788e-02 4.47703451e-02 -1.82901826e-02 -3.02267615e-02
      -2.13166792e-02 -7.74118258e-03 1.18511051e-01 3.68455470e-01
      -4.24443856e-02 -6.45700246e-02 -2.16346204e-01 -6.96022660e-02
      -5.09544834e-02 8.99045914e-02 6.50454611e-02 5.94347827e-02
      1.57856479e-01 8.33553523e-02 -1.30111098e-01 -1.15302868e-01
      -1.40556395e-01 2.19745822e-02 1.31359875e-01 1.27453089e-01
      9.99785438e-02 4.38488834e-02 2.82030217e-02 -7.92106614e-03
      -7.79471099e-02 2.73216120e-03 -2.72495300e-03 -5.61511843e-03
      -7.92181212e-03 -1.48698920e-02 -1.70971286e-02 -3.67750525e-02
      4.23116647e-02 5.84805496e-02 -2.82022934e-02 -5.55023141e-02
      -5.16828522e-02 -6.02475461e-03 3.50241698e-02 1.26239300e-01
      9.95464697e-02 -1.14510767e-02 -1.08930971e-02 6.92419009e-03
      -1.46940565e-02 -6.42436445e-02 -7.12875277e-02 -7.55940303e-02
      8.93447399e-02 1.21751152e-01 5.24437502e-02 -2.58377306e-02
      -4.73704264e-02 1.02723483e-02 2.89498847e-02 5.95880440e-03
      2.91333795e-02 1.94430891e-02 1.86455101e-02 -1.20237311e-02
      -4.96319756e-02 -1.28553258e-02 5.01313396e-02 1.98687851e-01
      -4.74114642e-02 -8.28099772e-02 -1.13488249e-01 -1.06148794e-02
      -1.76395569e-03 -6.27912872e-04 3.94677278e-03 3.80852744e-02
      2.57515967e-01 2.86806542e-02 -4.74114642e-02 -2.65184551e-01
      -1.38604492e-02 -5.96779818e-03 4.96746367e-03 1.89141650e-02
      2.15264395e-01 1.27150312e-01 -4.74114642e-02 -7.54140913e-02
      -5.31877019e-02 -2.05998309e-02 -1.10373171e-02 6.45633321e-03
      8.38061571e-02 1.47184640e-01 9.80730802e-02 -2.53539868e-02
      -8.99053924e-03 -2.46242598e-01 -1.57705098e-01 7.88341463e-03
      6.03523701e-02 4.66446690e-02 4.66446690e-02 -7.75764287e-02
      3.83739546e-02 4.66446690e-02 1.51545614e-01 -1.14322409e-01
      -2.20384687e-01 2.40240246e-02 2.06316158e-01 3.19496132e-02
      -2.09857728e-02 -9.03468579e-02 -1.28351733e-01 -5.26625216e-02
      7.91524444e-03 2.28763998e-01 2.22153321e-01 2.41476253e-01
      5.21208420e-02 -1.52763858e-01 -1.84718192e-01 -7.31331706e-02
      5.74088329e-03 6.66786879e-02 1.16042063e-01 2.24765614e-01
      4.49854136e-02 -9.02127754e-03 -1.32840360e-02 -6.76472858e-02
      -1.10437632e-01 -8.69546905e-02 -5.26625216e-02 2.53858507e-01
      7.39582479e-02 4.73670475e-02 -3.87972742e-02 -1.35549419e-02
      -5.26625216e-02 -5.26625216e-02 -4.29581292e-02 -1.41339116e-02
      1.42198205e-01 7.38802254e-02 -4.11390923e-02 -4.58681248e-02
      -9.94426832e-02 1.93153545e-02 1.00668464e-02 1.00668464e-02
      -9.46795009e-03 1.67397439e-01 -9.77409557e-02 9.45214197e-05
      -1.74191445e-02 -7.19021931e-02 -1.44557238e-01 -1.26112336e-02
      -5.59260324e-02 -1.84336193e-02 -2.58924882e-03 2.67200265e-03
      -7.66158011e-03 -1.10727280e-01 -2.37548620e-01 -2.44710192e-01
      -7.98518881e-02 3.58984739e-01 -2.14040466e-02 -2.84714065e-02
      1.26805762e-02 -6.78479858e-03 -2.67785159e-04 3.24221514e-02
      -9.39947665e-02 -7.98518881e-02 3.80122066e-01 -1.95822865e-02
      1.21900616e-02 -6.86574169e-03 -1.00028543e-02 -8.69391486e-03
      6.99861944e-02 2.54229724e-01 1.45179197e-01 -6.51244298e-02
      -5.40021472e-02 -2.71103531e-02 -1.23160109e-02 -1.10274116e-02
      -3.77354063e-02 -3.13481465e-02 1.98653564e-02 1.37342751e-01
      7.47881457e-02 9.03560966e-03 -1.38022820e-03 -9.19160340e-03
      -3.78032848e-02 -7.08116516e-02 -3.25005837e-02 1.40280336e-01
      1.73493456e-02 1.73493456e-02 -2.87767559e-01 -3.49293314e-02
      -4.57737930e-02 -6.87035248e-02 -4.12257016e-02 2.30913796e-03
      1.58110201e-01 1.73493456e-02 1.73493456e-02 -3.19032103e-01
      -6.19699284e-02 -5.00889644e-02 -6.01152284e-03 1.15403356e-02
      1.22411819e-02 1.66393965e-02 3.47511023e-02 -1.90529794e-01
      -1.41984403e-01 -2.82629207e-02 -1.19296862e-02</_>
    <_>
      4.80145663e-02 -4.53519262e-02 8.83705020e-02 -3.58063355e-02
      1.47625059e-02 -4.75363713e-03 5.13652563e-02 3.76437642e-02
      7.81014636e-02 2.17482597e-02 3.98174115e-03 3.98174115e-03
      -6.73284307e-02 -1.36362717e-01 -7.37209469e-02 1.85500998e-02
      1.52602550e-02 1.98386833e-01 5.35469130e-02 7.13557750e-02
      1.68737080e-02 -1.00319736e-01 -2.49557737e-02 -4.41205241e-02
      -4.84029055e-02 -1.57198548e-01 1.18012466e-02 4.93529588e-02
      5.86977527e-02 -5.60972514e-03 -3.05687245e-02 8.09895620e-03
      5.51251993e-02 6.78372383e-02 3.24418135e-02 -2.03202441e-02
      -2.68005244e-02 -2.68005244e-02 6.39834106e-02 -2.39825603e-02
      2.66054962e-02 7.33935535e-02 9.10317153e-02 -3.64801548e-02
      -2.68005244e-02 -2.68005244e-02 -6.02521049e-03 1.87518578e-02
      1.32209407e-02 9.61234421e-03 -2.66024889e-03 1.85368711e-03
      2.49739103e-02 3.59706990e-02 2.78770532e-02 -3.20819132e-02
      -9.64863691e-03 -1.07358443e-02 -7.42240297e-03 -6.07272983e-03
      -6.64587393e-02 -1.83813516e-02 7.03033134e-02 8.85709375e-03
      -2.48789303e-02 4.63815257e-02 1.09031253e-01 3.37651186e-02
      1.90279242e-02 -1.91088635e-02 -2.19622999e-02 -2.19622999e-02
      -1.05102248e-02 -9.42747574e-03 -7.56372698e-03 3.39768687e-03
      1.34069724e-02 2.62615774e-02 3.08882315e-02 -2.19622999e-02
      -3.04958230e-04 -1.56627770e-03 -9.03993566e-03 -6.24573715e-02
      1.37534179e-02 1.34748727e-01 9.15934294e-02 8.09123646e-03
      -9.81987105e-04 -8.30066507e-04 1.70691293e-02 4.42831405e-02
      8.33362564e-02 7.99934044e-02 -4.08129618e-02 -8.76301751e-02
      -6.24284670e-02 6.24341238e-03 4.33952734e-03 1.82158872e-02
      6.69214036e-03 -3.70739959e-02 1.62844628e-03 -8.23524445e-02
      -9.42477584e-02 -3.35958302e-02 8.03848077e-03 1.35575337e-02
      -1.05163446e-02 -1.84752401e-02 -1.57674998e-02 -3.66829964e-03
      2.08987184e-02 5.30036986e-02 2.04379428e-02 9.94857680e-03
      2.20990623e-03 -2.15127692e-03 -1.00016696e-02 -1.71195883e-02
      -1.81247983e-02 6.06490597e-02 1.92192942e-01 1.53452549e-02
      -1.61312509e-03 3.01238685e-03 4.97326814e-02 6.68626800e-02
      1.17669411e-01 -3.27144400e-03 -5.27231731e-02 -5.27231731e-02
      -3.55023667e-02 4.47423384e-02 5.03341481e-02 -2.22817510e-02
      -6.81920573e-02 -5.94357960e-02 1.47570204e-02 -8.64102915e-02
      -1.37266904e-01 -7.42169246e-02 6.77550724e-03 1.79888438e-02
      -9.28632333e-04 -5.65680256e-03 1.08601083e-03 2.14591566e-02
      4.06414457e-02 7.29937553e-02 3.79544981e-02 1.29971504e-02
      6.45425217e-03 -7.25968182e-03 -1.03791971e-02 4.89224819e-03
      1.25238940e-01 4.55826782e-02 -7.64050707e-03 -5.18774905e-04
      -9.34325997e-03 -8.70232377e-03 4.35870104e-02 6.86549991e-02
      6.87486231e-02 -3.51109691e-02 -5.27231731e-02 1.66946929e-02
      6.52606413e-02 4.10113148e-02 4.39107604e-02 3.09206806e-02
      3.45866121e-02 3.58195007e-02 -8.79684687e-02 -8.50437358e-02
      -7.43782194e-03 -3.08049805e-02 2.33342946e-02 3.56261618e-02
      1.27326204e-02 2.93451212e-02 4.80365939e-02 3.87340784e-02
      -1.05384992e-04 1.10687711e-03 -7.70128658e-03 3.90852382e-03
      8.18991661e-03 -2.33694282e-03 -4.95540095e-04 3.62650794e-03
      6.98756650e-02 9.31826904e-02 -1.60601106e-03 -5.28392233e-02
      -5.39250439e-03 -2.05970602e-03 5.66118397e-03 -8.91924137e-04
      -4.90612499e-02 -6.65427148e-02 8.15713704e-02 1.06996305e-01
      6.06115954e-03 1.54703958e-02 9.16972477e-03 1.69616602e-02
      6.00262405e-03 -2.18679812e-02 -7.16615841e-02 -3.67845818e-02
      3.67108919e-02 4.58936812e-03 2.01209728e-02 1.98215321e-02
      -1.13985334e-02 -4.98109451e-03 2.09091436e-02 3.26863676e-02
      1.03953602e-02 -5.15341992e-03 -5.96431131e-03 -2.55693984e-03
      -7.56187737e-03 -8.30630399e-03 2.88071320e-03 2.95044184e-02
      3.98758501e-02 1.69308558e-02 -7.06941588e-04 -2.01214035e-03
      -1.98270514e-04 -4.82021971e-03 -3.48726893e-03 -7.35747963e-02
      -8.00512359e-02 1.71346199e-02 9.14025120e-03 6.21925965e-02
      6.73745051e-02 -1.68770328e-02 -3.33826989e-03 -9.52779576e-02
      -6.04705140e-02 -4.33087908e-02 -8.16811249e-03 4.91494425e-02
      1.84092537e-01 9.34806094e-02 -6.15737438e-02 -6.52452037e-02
      1.55764753e-02 4.97817695e-02 4.57262956e-02 2.40562782e-02
      1.75993238e-02 -4.90234175e-04 -9.86392796e-03 1.62046799e-03
      6.72213314e-03 2.82458607e-02 3.17284614e-02 6.70293998e-03
      -2.56531853e-02 -3.30975279e-02 -6.75637275e-02 -7.47795030e-02
      -5.93404286e-02 -1.69575848e-02 5.24213500e-02 -3.43179852e-02
      -1.94667168e-02 -2.60735098e-02 5.69348633e-02 -3.81769016e-02
      1.89779922e-02 4.89236228e-02 3.84930372e-02 -2.61102747e-02
      -1.94667168e-02 9.05302018e-02 4.58572246e-02 8.46602544e-02
      1.04543567e-01 3.02212145e-02 3.11014690e-02 -3.36737074e-02
      -2.26316750e-02 4.98887897e-03 -1.28496494e-02 -3.52828838e-02
      2.57102773e-02 2.13060863e-02 1.82985011e-02 2.30281465e-02
      -5.78694753e-02 6.79379236e-03 1.45233162e-02 -1.74720306e-02
      -9.63896513e-03 -3.60656306e-02 -2.98951324e-02 -4.00391147e-02
      2.12859293e-03 3.32932025e-02 -7.12669566e-02 -6.97306320e-02
      -3.34055647e-02 -5.47706790e-04 4.35080342e-02 1.91094056e-01
      1.28546143e-02 1.28546143e-02 -5.82559928e-02 1.45060197e-02
      -1.73877720e-02 -1.29572511e-01 -5.55484779e-02 3.17698717e-02
      1.12593174e-01 2.15958670e-01 1.44247368e-01 4.21879664e-02
      -1.32060666e-02 -1.95394233e-02 -8.77254177e-03 3.29900607e-02
      6.87056407e-02 -7.49435136e-03 -2.27894224e-02 -6.02849154e-03
      -1.27428789e-02 1.14447214e-02 1.37471976e-02 -1.63129196e-02
      -1.35642178e-02 -1.53131578e-02 1.05818827e-03 -1.23852734e-02
      2.52742935e-02 4.43591140e-02 -6.95067793e-02 -1.14120161e-02
      -3.80173475e-02 -2.12562848e-02 6.43121451e-03 5.89887537e-02
      6.33576810e-02 -5.80582283e-02 -6.73450157e-02 -1.11066394e-01
      -1.63961798e-01 -1.64122358e-01 -7.29985908e-02 2.72008814e-02
      6.78816512e-02 1.61359549e-01 1.19820230e-01 -5.73742613e-02
      -8.99318140e-03 -2.13610306e-02 -4.43418622e-02 -9.85284522e-03
      1.44524071e-02 2.54666600e-02 1.16429012e-02 2.22944445e-03
      -9.35532805e-03 -3.20336856e-02 -1.32292286e-01 6.21313229e-04
      6.21313229e-04 1.64546475e-01 1.33604622e-02 -2.02750918e-04
      -1.49849318e-02 -7.45381042e-03 -3.34361829e-02 -8.93617272e-02
      1.27315577e-02 6.21313229e-04 8.05230290e-02 -3.41911763e-02
      -7.13178143e-03 -3.96701731e-02 -2.82818619e-02 -5.12174740e-02
      -8.50093365e-02 6.21313229e-04 6.21313229e-04 4.52135354e-02
      2.46519651e-02 9.75186378e-03 9.10235289e-03 -4.65504796e-04
      -7.88916349e-02 -7.40990713e-02 -9.54862982e-02 5.77519052e-02
      1.43057525e-01 -1.15082553e-02 1.94380200e-03 1.73078701e-02
      -1.29005881e-02 2.88538560e-02 2.31961999e-02 7.16720894e-02
      9.48989019e-02 -1.14619415e-02 -2.35379245e-02 -1.40375257e-01
      -1.95441395e-02 -1.14619415e-02 1.00229152e-01 4.05046269e-02
      1.54131223e-02 3.93708646e-02 2.11815760e-02 -7.84179289e-03
      -7.84179289e-03 -2.17405725e-02 -1.11502406e-04 -1.73332747e-02
      6.92658732e-03 -1.07609825e-02 1.04644574e-01 1.19761184e-01
      -1.12399375e-02 -1.01965472e-01 -1.68579131e-01 -6.45068064e-02
      3.08971666e-02 2.57019158e-02 2.56541427e-02 1.18217349e-01
      1.06765233e-01 6.50215670e-02 -7.84179289e-03 -1.20852543e-02
      -2.99613420e-02 6.22544996e-03 2.31605154e-02 6.38654381e-02
      8.41002464e-02 -7.84179289e-03 -5.14498614e-02 -7.56791681e-02
      -1.14388011e-01 -6.77499101e-02 -5.28730638e-02 -9.03213173e-02
      -1.20677426e-01 1.10328617e-02 4.47452813e-02 4.47452813e-02
      4.30934168e-02 4.47452813e-02 -9.69150662e-02 -1.06151681e-02
      -4.97271540e-03 4.76599252e-03 8.69087726e-02 1.34780720e-01
      -1.43954694e-01 -1.60621673e-01 -1.44944429e-01 -7.49275684e-02
      -5.60785644e-02 5.88862225e-03 9.94472802e-02 1.76370531e-01
      1.08832419e-01 8.22945312e-02 -4.04287785e-01 -3.36603999e-01
      -1.78870812e-01 -5.19567281e-02 -2.41169874e-02 9.82561409e-02
      1.39402285e-01 8.22945312e-02 8.22945312e-02 -3.35877568e-01
      -1.98600098e-01 -9.65741798e-02 -1.69371665e-02 -1.64659861e-02
      4.89013866e-02 1.89835459e-01 1.52171373e-01 -1.63662493e-01
      -2.29124680e-01 -6.87319264e-02 -2.55396534e-02 -7.11159334e-02
      -1.69843256e-01 -1.40966862e-01 -5.97548159e-03 1.05096482e-01
      6.67070299e-02 1.08326701e-02 -1.95412501e-03 -1.68524962e-02
      -1.31910533e-01 -3.34585905e-01 -3.82992685e-01 3.18837836e-02
      1.23651192e-01 3.47903192e-01 -1.09096449e-02 -6.91411272e-02
      -3.49684507e-02 -1.21607974e-01 -2.54482538e-01 -3.24189633e-01
      9.42117274e-02 1.23651192e-01 1.29489809e-01 -6.39544725e-02
      -5.45547344e-02 -5.31063303e-02 -4.28835750e-02 -6.02355786e-02
      -9.40306261e-02 -1.20137528e-01 6.34036213e-02 2.49212757e-02
      -2.00541504e-02 -4.24070694e-02 -5.05819768e-02</_>
    <_>
      1.21220322e-02 7.26862401e-02 1.08872987e-02 -3.50145623e-02
      1.97938867e-02 1.03698084e-02 5.43364510e-03 2.41975915e-02
      1.75234638e-02 3.35369222e-02 2.12618262e-02 2.12618262e-02
      2.12618262e-02 -3.10797021e-02 -9.59559307e-02 -1.73321906e-02
      -1.23770297e-01 6.58296719e-02 -9.60266031e-03 2.54230271e-03
      -2.14834828e-02 5.88186681e-02 1.99866090e-02 2.79743480e-03
      1.23733608e-02 -6.35639727e-02 -1.74852312e-02 -3.98679487e-02
      -3.99737842e-02 3.46131856e-03 -1.07097663e-02 -9.38299671e-03
      -5.48094790e-03 2.52444036e-02 5.75662330e-02 -1.70460436e-02
      -3.11184805e-02 -3.42320167e-02 7.43282586e-02 -8.42561107e-03
      8.62730201e-03 1.65864229e-02 2.64297575e-02 4.86966446e-02
      -3.11184805e-02 -3.11184805e-02 1.45450672e-02 7.33283609e-02
      1.03930449e-02 1.75905842e-02 1.14179226e-02 -5.73671004e-03
      3.13432701e-03 6.12802058e-02 1.58044845e-02 -3.29452101e-03
      1.15490484e-03 -2.71916855e-03 -7.18013197e-03 -1.45806195e-02
      3.87521321e-03 2.69523934e-02 -3.83450352e-02 -3.57817635e-02
      -3.04254051e-02 -1.73883084e-02 -1.88405383e-02 3.66130769e-02
      8.00052751e-03 6.72875866e-02 -4.64485539e-03 -4.64485539e-03
      -7.48633593e-02 -3.13567929e-02 -8.71237274e-03 -4.67655831e-04
      6.44614920e-03 1.85320843e-02 1.28548801e-01 -4.64485539e-03
      -1.30460933e-01 -8.35414321e-05 -4.93389275e-03 -2.18195021e-02
      5.51167084e-03 5.53228334e-02 2.91340128e-02 -5.13026305e-03
      -3.74597032e-03 -2.74159620e-03 8.34539440e-03 2.46830825e-02
      5.20402603e-02 3.61811668e-02 -2.57737301e-02 -8.11680257e-02
      -4.17634025e-02 -8.85713194e-03 -4.91887657e-03 2.94787390e-03
      1.83992758e-02 -2.57668248e-03 -1.26849581e-02 -6.64294735e-02
      -7.17379823e-02 -2.22719293e-02 5.65918686e-04 1.37248111e-03
      -7.38226715e-03 -1.41837560e-02 -6.65651774e-03 3.62591399e-03
      1.26065742e-02 1.31856110e-02 1.35370214e-02 3.43596539e-03
      -3.85768386e-03 -5.09507838e-04 -5.05031319e-03 -8.61320831e-03
      -2.55203675e-02 5.17249219e-02 8.49991143e-02 -5.86601207e-03
      -2.06440757e-03 1.10579400e-04 3.24257426e-02 7.06226304e-02
      9.20070410e-02 -2.35219765e-02 -1.94336288e-02 -1.94336288e-02
      -2.32073124e-02 8.06792919e-03 5.79181919e-03 1.11970128e-02
      5.94732724e-03 -2.55340748e-02 -5.38753299e-03 -6.79783672e-02
      -8.78468603e-02 -1.92321055e-02 1.43741723e-02 1.22160064e-02
      2.08989414e-03 -3.77775868e-03 -6.56689098e-03 -3.50400759e-03
      2.63537858e-02 5.34439608e-02 4.79123183e-02 2.09830422e-02
      2.74563325e-03 -1.66123756e-03 -1.39720016e-03 3.15529900e-03
      4.53791581e-02 1.94883607e-02 -1.46206133e-02 -1.45144584e-02
      -3.39055248e-03 -2.39792233e-03 2.80183088e-02 2.86903009e-02
      2.06974577e-02 -1.51971646e-03 -1.94336288e-02 3.35606672e-02
      3.54242958e-02 3.42002548e-02 1.98008511e-02 1.09555824e-02
      1.50814392e-02 1.31768710e-03 -3.19361687e-02 -2.54707243e-02
      8.84370320e-03 -3.51860467e-03 6.53211400e-03 3.77582130e-03
      1.02711227e-02 8.55781697e-03 1.01135513e-02 2.56578525e-04
      5.23814524e-04 1.46028120e-02 6.51058601e-03 4.46051499e-03
      4.27097455e-03 -2.28503981e-04 -5.45131217e-04 -1.91883033e-03
      1.85866002e-02 5.43583035e-02 -2.27187742e-02 -3.88873965e-02
      -1.27595523e-03 -8.02043418e-04 1.62182897e-02 9.89991706e-03
      -2.73642577e-02 -4.10758182e-02 2.58875322e-02 7.31737539e-02
      1.01682898e-02 8.45564622e-03 1.07270563e-02 7.40941102e-03
      6.41506119e-03 -1.52113233e-02 -3.58655825e-02 -3.58031830e-03
      3.52777280e-02 5.75035252e-03 9.91341006e-03 5.21780457e-03
      -1.15082576e-03 1.34117284e-03 1.06961178e-02 1.25546493e-02
      1.66305143e-03 -4.48207790e-03 -4.62974282e-03 -2.45959149e-03
      -3.92302591e-03 -8.27504974e-03 -3.26598206e-06 5.99082187e-03
      1.28483577e-02 8.49781185e-03 1.82915735e-03 -2.77605793e-03
      -4.50128689e-03 -9.09540709e-03 -4.69831564e-02 -4.64699231e-02
      -5.51332273e-02 1.41468430e-02 1.49130309e-02 1.17044207e-02
      -1.75292499e-03 3.22390860e-03 2.37873383e-02 3.47692892e-03
      3.49073596e-02 3.31283966e-03 -5.87329865e-02 -2.75743827e-02
      -9.51046124e-03 -1.59555413e-02 1.48022957e-02 2.42490955e-02
      2.02620327e-02 5.41695766e-03 -6.88581262e-03 -8.44775140e-03
      -1.25119546e-02 -1.56896599e-02 -3.05471057e-03 2.83066221e-02
      4.44549695e-02 1.92955241e-03 7.14999251e-03 2.54334207e-03
      1.15848111e-03 -1.29189137e-02 -3.11627537e-02 -2.61197872e-02
      -3.36054415e-02 -2.74689291e-02 2.68247817e-02 2.88022384e-02
      1.71738733e-02 -8.99089780e-03 -2.45810207e-02 -5.79090938e-02
      -1.93652697e-02 -4.82321531e-03 5.53845800e-03 1.71738733e-02
      1.71738733e-02 9.29093137e-02 -3.83597352e-02 -3.30017135e-02
      -1.83386449e-02 -4.51492853e-02 -1.78400464e-02 4.74806083e-03
      1.20409876e-02 3.92499799e-03 -3.36956270e-02 -5.27549051e-02
      -1.26457410e-02 -1.74487978e-02 -2.92079952e-02 8.76166765e-03
      3.20620239e-02 -1.42487958e-02 -9.31081641e-03 -1.14023387e-02
      -1.04778046e-02 -1.97740830e-02 -4.93275002e-02 -3.76070850e-02
      2.87576467e-02 -5.63465175e-04 -5.89926504e-02 -4.97849286e-02
      -3.73590388e-03 1.10051688e-02 -1.55542847e-02 -4.85240370e-02
      8.69743526e-03 2.72379816e-02 6.28692731e-02 2.89176758e-02
      8.40056501e-03 -1.44741088e-01 -5.48555590e-02 -6.62092643e-04
      2.18444075e-02 9.46519524e-02 1.68741927e-01 8.86922106e-02
      6.39791116e-02 -1.65961720e-02 -6.41767159e-02 -3.95788811e-02
      -1.06478119e-02 -4.27587479e-02 -2.44352054e-02 5.50254621e-03
      3.57712358e-02 -3.96354636e-03 -3.69510287e-03 -8.32607318e-03
      -5.25331590e-03 -6.36776385e-04 8.22367147e-03 2.42766254e-02
      1.24913547e-02 -3.04903695e-03 -1.80322807e-02 2.71579507e-03
      1.31346732e-02 -1.85974073e-02 -2.77427416e-02 5.59063070e-03
      1.50688644e-03 -3.52750346e-02 -3.81443948e-02 1.81251504e-02
      -6.01733662e-02 -9.20626745e-02 -1.83899596e-03 3.12882438e-02
      2.60762461e-02 3.03148609e-02 -1.08153652e-02 -5.62442653e-02
      3.19708772e-02 -3.65110603e-03 -2.62292139e-02 -7.82592688e-03
      -1.01293838e-02 -9.17201396e-04 -3.59206414e-03 -4.77688409e-05
      1.51477773e-02 -1.65608078e-02 -1.13442391e-01 -1.01424843e-01
      2.13195831e-02 1.66770071e-01 7.84094557e-02 6.98268134e-03
      -7.20543787e-03 -7.75238220e-03 -1.77780483e-02 -8.29428881e-02
      -1.28289014e-01 -2.68229451e-02 6.66418970e-02 1.52527526e-01
      1.70566440e-02 -2.24410444e-02 -2.03238558e-02 -2.95432340e-02
      -1.99108109e-01 -7.65313581e-02 2.13195831e-02 9.24180448e-02
      7.94888735e-02 3.63402963e-02 1.43374726e-02 1.72443073e-02
      -7.25047812e-02 -1.69877365e-01 -1.23967633e-01 8.35060515e-03
      6.37610480e-02 1.64923817e-01 1.42221957e-01 6.85762800e-03
      -3.14257406e-02 -3.76949785e-03 2.24722307e-02 1.13352306e-01
      2.74422899e-04 -1.47923781e-02 -5.76089621e-02 -1.35564832e-02
      -3.17807263e-03 -1.47923781e-02 -5.32847904e-02 1.91149004e-02
      3.27772871e-02 6.95140287e-02 9.64605734e-02 3.02237030e-02
      -2.13568285e-02 -1.72215134e-01 -1.81856692e-01 -1.17455959e-01
      -2.85562836e-02 1.02622323e-01 1.99070081e-01 1.18188903e-01
      -2.29367837e-02 -1.01234429e-01 -1.66408494e-01 -1.98073998e-01
      -2.33235583e-02 2.13121832e-03 1.68732610e-02 9.58963335e-02
      1.27457559e-01 1.07242279e-01 3.02237030e-02 -1.66932493e-01
      -7.89355263e-02 -3.82920951e-02 1.23415962e-02 4.92110476e-02
      9.06535238e-02 3.02237030e-02 1.82235986e-02 2.34345254e-02
      -1.32067770e-01 -8.90113562e-02 3.18236952e-03 3.17362994e-02
      7.04725906e-02 -5.99315315e-02 2.97112949e-03 2.97112949e-03
      -1.51302498e-02 -1.55113786e-02 2.97112949e-03 -9.25420411e-03
      1.72738126e-03 3.90486345e-02 1.39340356e-01 7.11084232e-02
      -9.24721882e-02 -1.13522552e-01 -8.98456052e-02 -4.30130698e-02
      -3.10420897e-02 5.04989363e-02 1.83977038e-01 2.61680007e-01
      1.09874494e-01 -1.58340722e-01 -2.48890430e-01 -1.97202682e-01
      -1.14549682e-01 -2.49631032e-02 -9.35116597e-03 8.60697851e-02
      1.87203184e-01 5.91585934e-02 -1.69199243e-01 -2.26212934e-01
      -1.22630894e-01 -5.54315709e-02 -7.35516136e-04 -1.72401383e-03
      1.21251482e-03 2.48342101e-02 1.56989098e-02 -9.19995308e-02
      -1.08824655e-01 -3.03901881e-02 -3.23435152e-03 -3.87837179e-02
      -9.69893783e-02 -7.71239921e-02 -9.11963731e-03 3.50935981e-02
      1.20075718e-02 -2.05666549e-03 -2.58839573e-03 -7.81512447e-03
      -5.55930100e-02 -1.68662980e-01 -2.40440995e-01 -1.33100435e-01
      9.63419825e-02 2.09663197e-01 1.07897684e-01 -6.88273320e-03
      -7.94643629e-03 -5.89810275e-02 -1.81648031e-01 -1.86492130e-01
      -8.88540447e-02 9.63419825e-02 1.02797136e-01 6.90786690e-02
      9.40372143e-03 1.54136016e-03 -3.05288583e-02 -6.10685162e-02
      -7.66124055e-02 -7.13405162e-02 5.36422059e-02 1.34021491e-01
      6.14439957e-02 -7.85600580e-03 -2.28906311e-02</_></support_vectors>
  <uncompressed_sv_total>24</uncompressed_sv_total>
  <uncompressed_support_vectors>
    <_>
      1.84185639e-01 1.55139014e-01 7.16960803e-02 3.86878438e-02
      7.36638233e-02 3.05436701e-02 4.37623933e-02 6.64163753e-02
      9.73454341e-02 3.09560567e-01 3.09560567e-01 3.09560567e-01
      2.37167746e-01 1.94991142e-01 1.07604720e-01 3.09560567e-01
      3.09560567e-01 2.96495229e-01 1.12365790e-01 2.34477207e-01
      1.58765838e-01 7.22266436e-02 3.19419913e-02 2.15668306e-02
      2.22512081e-01 2.75733680e-01 1.10288881e-01 1.77171141e-01
      1.24147810e-01 9.60121825e-02 4.64151837e-02 7.71815935e-03
      2.55357921e-02 7.45818242e-02 1.40094042e-01 2.02001497e-01
      3.65352690e-01 3.65352690e-01 1.44062132e-01 7.93987289e-02
      5.56237958e-02 8.90613124e-02 1.44426718e-01 2.77396649e-01
      3.65352690e-01 3.65352690e-01 3.65352690e-01 1.29319638e-01
      3.53514925e-02 6.49978295e-02 6.23471066e-02 2.94640027e-02
      2.18520127e-02 2.01827466e-01 2.88686734e-02 1.69852525e-02
      4.57483940e-02 3.80491093e-02 4.76184525e-02 4.33606990e-02
      1.35829851e-01 2.74029613e-01 8.07187408e-02 1.23086378e-01
      4.76725064e-02 1.64807379e-01 1.89444602e-01 2.34807745e-01
      1.27771512e-01 3.88792008e-01 3.89278591e-01 3.89278591e-01
      4.96887006e-02 3.59779522e-02 6.62025139e-02 5.17621972e-02
      6.00532107e-02 1.54511053e-02 1.95108548e-01 3.89278591e-01
      2.77125865e-01 2.88266363e-03 3.01497267e-03 2.69488897e-02
      9.36778113e-02 1.33475274e-01 5.09310551e-02 8.90750159e-03
      5.99798048e-03 3.26786959e-03 3.55044454e-02 5.42560369e-02
      9.20059010e-02 1.43620387e-01 2.48441845e-01 1.14384800e-01
      3.33050229e-02 1.03623094e-02 2.34716907e-02 5.26539125e-02
      5.20952605e-02 6.41019791e-02 4.90797050e-02 1.11768208e-02
      9.48502496e-03 2.06130259e-02 2.52345689e-02 5.03311157e-02
      8.39981064e-03 8.85442737e-03 1.18862195e-02 7.86180794e-03
      2.14258060e-02 3.94372754e-02 2.82151420e-02 1.21976463e-02
      8.33139662e-03 8.69328436e-03 1.48182185e-02 1.95136648e-02
      7.88548291e-02 2.25240648e-01 1.59276024e-01 4.00525555e-02
      1.88284758e-02 8.02071672e-03 4.71657142e-02 9.80586931e-02
      1.20885856e-01 1.59772217e-01 2.48441845e-01 2.48441845e-01
      1.24464639e-01 3.88787463e-02 3.65343578e-02 4.86017838e-02
      7.72800595e-02 7.27243274e-02 4.30912822e-02 5.59783056e-02
      4.97796312e-02 6.34094030e-02 5.69149069e-02 4.42774594e-02
      1.35652553e-02 1.57150552e-02 1.79097969e-02 2.10913531e-02
      4.20795567e-02 5.72705045e-02 5.14912605e-02 2.20609382e-02
      1.29391951e-02 4.05773940e-03 1.38896117e-02 3.15869302e-02
      1.79513156e-01 2.40687653e-01 9.83001888e-02 3.21633406e-02
      7.24911736e-03 2.57947505e-03 4.62589487e-02 8.73545855e-02
      1.53598398e-01 2.48441845e-01 2.48441845e-01 2.22069040e-01
      6.09463118e-02 3.60523909e-02 2.58349162e-02 3.17136757e-02
      4.32966463e-02 7.38189742e-02 1.12109765e-01 9.17225331e-02
      1.01061933e-01 4.33110856e-02 3.66215594e-02 2.52436996e-02
      1.49556696e-02 1.70315076e-02 4.16731350e-02 5.07661365e-02
      2.43289825e-02 1.28900819e-02 1.75160170e-02 1.38902534e-02
      1.10752685e-02 8.56156752e-04 1.28976197e-03 5.80312544e-03
      4.94112484e-02 1.17202550e-01 1.39804184e-01 4.84153032e-02
      1.84578449e-03 1.14947371e-03 9.19666328e-03 1.53774768e-02
      1.89156719e-02 9.72533897e-02 2.35090658e-01 1.85645178e-01
      5.86966351e-02 4.06258069e-02 2.13313978e-02 2.91482098e-02
      2.73492765e-02 3.12721692e-02 2.37028766e-02 3.23724225e-02
      4.27030772e-02 4.35181521e-02 4.86806855e-02 3.10421791e-02
      9.85977054e-03 9.05060675e-03 2.22815741e-02 2.38168407e-02
      1.05348481e-02 4.80507221e-03 3.52092669e-03 5.61572658e-03
      7.10488390e-03 3.23793218e-02 7.34679177e-02 8.77009109e-02
      2.79695168e-02 1.84645951e-02 5.44562051e-03 4.75378428e-03
      8.41864757e-03 1.64409447e-02 1.59702897e-01 2.28261784e-01
      2.28261784e-01 1.69018418e-01 1.55853644e-01 1.01959042e-01
      4.85340506e-02 5.12084439e-02 1.05139084e-01 9.55597386e-02
      1.01799868e-01 1.46381393e-01 1.45493448e-01 1.27601281e-01
      5.93972802e-02 8.75398889e-02 1.07958198e-01 9.50508565e-02
      2.80008577e-02 3.05194929e-02 3.75111476e-02 4.42342535e-02
      5.42184822e-02 2.97448840e-02 2.51129381e-02 1.81874242e-02
      1.52781904e-02 5.88802285e-02 5.83567657e-02 5.31735346e-02
      3.20051461e-02 3.88776995e-02 7.10718036e-02 6.63804486e-02
      4.74785939e-02 4.75650840e-02 1.40714571e-01 2.28261784e-01
      2.28261784e-01 1.71496093e-01 1.81307971e-01 2.28261784e-01
      1.72042489e-01 1.27576858e-01 1.05616763e-01 1.83761686e-01
      1.72778085e-01 1.82183087e-01 1.04611628e-01 1.39870584e-01
      1.00605726e-01 1.40481815e-01 2.19172210e-01 1.97896659e-01
      3.25113125e-02 2.64580492e-02 9.89004001e-02 1.72244459e-01
      1.71450973e-01 9.45752487e-02 6.80330098e-02 3.83401997e-02
      3.25854495e-02 2.85483766e-02 2.20942609e-02 1.45507082e-02
      6.62531331e-03 1.09890727e-02 7.32478276e-02 1.40380010e-01
      6.74476549e-02 4.02713791e-02 8.22107494e-02 4.86088507e-02
      2.67084930e-02 1.51623040e-02 5.21205142e-02 2.53097147e-01
      2.63717502e-01 2.63717502e-01 1.20797284e-01 2.63717502e-01
      2.42201537e-01 2.33161390e-01 6.55607954e-02 4.09094132e-02
      3.67705151e-02 1.47442892e-01 2.01010510e-01 2.07644716e-01
      2.02195868e-02 6.77687004e-02 1.20216295e-01 8.21894705e-02
      1.16996989e-01 1.17975943e-01 6.25490695e-02 1.77879501e-02
      1.17827682e-02 2.23031994e-02 1.22388154e-02 8.80033523e-03
      2.47652060e-03 6.92037586e-03 2.63513848e-02 3.36080194e-02
      4.74676564e-02 4.23562638e-02 6.42934293e-02 2.43727453e-02
      1.76799763e-02 1.46658728e-02 7.62912259e-02 9.09655020e-02
      2.63717502e-01 2.63717502e-01 1.26331717e-01 1.46228760e-01
      8.10744464e-02 8.32690820e-02 3.95254493e-02 5.71666285e-02
      4.93035354e-02 1.89447805e-01 2.47713745e-01 2.27975890e-01
      9.94557142e-03 2.02141404e-02 3.97666544e-02 3.63451876e-02
      3.20218354e-02 3.13304029e-02 3.85603942e-02 2.80801710e-02
      2.13145576e-02 1.50138559e-02 8.09057653e-02 3.01596254e-01
      3.01596254e-01 2.09964797e-01 1.00653008e-01 2.21830420e-02
      1.51262367e-02 5.47837652e-03 5.97715452e-02 1.15188092e-01
      1.74354270e-01 3.01596254e-01 3.01596254e-01 1.93121940e-01
      5.72184399e-02 3.62410583e-02 2.74810139e-02 6.63936883e-02
      1.43680930e-01 3.01596254e-01 3.01596254e-01 2.41820052e-01
      8.11501965e-02 3.40471566e-02 2.40445435e-02 5.25086597e-02
      1.48301572e-01 1.70741498e-01 1.69971421e-01 2.18601257e-01
      1.65873110e-01 1.40215203e-01 7.22735673e-02 7.73313120e-02
      1.37104005e-01 3.91827911e-01 2.58106768e-01 8.81460682e-02
      3.91827911e-01 3.91827911e-01 3.91827911e-01 3.35941136e-01
      2.92229593e-01 3.30644667e-01 1.59239769e-01 7.39587918e-02
      3.48830074e-02 8.12227800e-02 2.06416070e-01 2.61473387e-01
      2.61473387e-01 2.03631118e-01 1.60497740e-01 1.82233810e-01
      1.19796142e-01 2.00372398e-01 2.61473387e-01 2.10680753e-01
      4.22471426e-02 7.59916678e-02 9.56513509e-02 1.54509887e-01
      4.68100384e-02 4.77389172e-02 4.25880775e-02 7.73707256e-02
      1.39903426e-01 2.12585419e-01 2.61473387e-01 2.61473387e-01
      9.81342494e-02 6.84546903e-02 1.10931322e-01 2.00031891e-01
      2.61473387e-01 2.61473387e-01 4.20191772e-02 1.54854178e-01
      1.44704044e-01 8.54501799e-02 3.33524376e-01 3.33524376e-01
      3.33524376e-01 3.26740772e-01 3.33524376e-01 3.33524376e-01
      3.33524376e-01 3.33524376e-01 3.33524376e-01 6.96107186e-03
      4.81260978e-02 5.19912690e-02 5.87381721e-02 4.35403623e-02
      6.73644543e-02 9.30348933e-02 5.44164591e-02 1.09864902e-02
      2.52668019e-02 4.96936738e-02 1.34942040e-01 3.42118055e-01
      3.42118055e-01 3.42118055e-01 3.18528414e-01 6.87307492e-02
      4.88903448e-02 4.33310447e-03 8.30631144e-03 5.76511696e-02
      3.27734947e-01 3.42118055e-01 3.42118055e-01 3.11790615e-01
      3.98884341e-02 2.01596171e-02 1.04053121e-03 1.61357224e-03
      5.72731195e-04 1.86230149e-02 9.55112576e-02 1.47710368e-01
      1.12224817e-01 2.86916960e-02 5.96747594e-03 3.52574848e-02
      7.77109042e-02 9.02221501e-02 6.25721589e-02 7.61050433e-02
      1.07867168e-02 4.16557677e-03 4.26072581e-03 8.21957085e-03
      6.97212815e-02 1.31395176e-01 3.43282431e-01 3.43282431e-01
      3.43282431e-01 1.95929781e-01 4.95513827e-02 2.88613550e-02
      2.95388885e-02 9.01106447e-02 1.89932570e-01 3.41976583e-01
      3.43282431e-01 3.43282431e-01 3.33085179e-01 6.16536848e-02
      1.62411500e-02 4.24136445e-02 4.52754833e-02 9.42583457e-02
      8.28908607e-02 7.34416470e-02 1.02078594e-01 4.94715832e-02
      5.24392091e-02 1.91602577e-02 1.40278684e-02</_>
    <_>
      1.97999194e-01 1.79857552e-01 6.29727542e-02 6.61936775e-02
      4.37503830e-02 3.85902077e-02 6.11745231e-02 9.73846912e-02
      6.11434802e-02 3.01679462e-01 3.01679462e-01 3.01679462e-01
      2.10815102e-01 2.54046530e-01 1.53355882e-01 3.01679462e-01
      3.01679462e-01 2.71940380e-01 1.11523598e-01 2.75483727e-01
